{"learner":{"attributes":{"scikit_learn":"{\"_estimator_type\": \"regressor\"}"},"feature_names":["imbalance_ratio","overlap","rows","samples_per_hypersphere","total_hypersheres","average_distance_between_classes","samples_per_hypersphere_minority","samples_per_hypersphere_majority","hypershpere_count_minority","hypershpere_count_majority","silhouette_score","davies_bouldin_score","calinski_harabaz_score","cohesion_score","separation_score","rmsstd_score","rs_score","xb_score","adjusted_random_score","adjusted_mutual_info_score","fowlkes_mallows_score","normalized_mutual_info_score","complexity","weighted_complexity","dual_weighted_complexity","tomeklink_complexity","number_of_classes","number_of_rows","number_of_columns","learner_ada","learner_cat","learner_dt","learner_gnb","learner_knn","learner_rf","learner_svm","learner_xgb","resampler_adasyn","resampler_allknn","resampler_borderlinesmote","resampler_clustercentroids","resampler_condensednn","resampler_editednn","resampler_instancehardness","resampler_ncl","resampler_nearmissv1","resampler_nearmissv2","resampler_nearmissv3","resampler_none","resampler_randomoversampler","resampler_randomundersampler","resampler_repeatededitednn","resampler_smote","resampler_smoteenn","resampler_smotesvm","resampler_smotetomek","resampler_tomeklinks"],"feature_types":["float","float","float","float","float","float","float","float","float","float","float","float","float","float","float","float","float","float","float","float","float","float","float","float","float","float","float","float","float","float","float","float","float","float","float","float","float","float","float","float","float","float","float","float","float","float","float","float","float","float","float","float","float","float","float","float","float"],"gradient_booster":{"model":{"gbtree_model_param":{"num_parallel_tree":"1","num_trees":"1000"},"iteration_indptr":[0,1,2,3,4,5,6,7,8,9,10,11,12,13,14,15,16,17,18,19,20,21,22,23,24,25,26,27,28,29,30,31,32,33,34,35,36,37,38,39,40,41,42,43,44,45,46,47,48,49,50,51,52,53,54,55,56,57,58,59,60,61,62,63,64,65,66,67,68,69,70,71,72,73,74,75,76,77,78,79,80,81,82,83,84,85,86,87,88,89,90,91,92,93,94,95,96,97,98,99,100,101,102,103,104,105,106,107,108,109,110,111,112,113,114,115,116,117,118,119,120,121,122,123,124,125,126,127,128,129,130,131,132,133,134,135,136,137,138,139,140,141,142,143,144,145,146,147,148,149,150,151,152,153,154,155,156,157,158,159,160,161,162,163,164,165,166,167,168,169,170,171,172,173,174,175,176,177,178,179,180,181,182,183,184,185,186,187,188,189,190,191,192,193,194,195,196,197,198,199,200,201,202,203,204,205,206,207,208,209,210,211,212,213,214,215,216,217,218,219,220,221,222,223,224,225,226,227,228,229,230,231,232,233,234,235,236,237,238,239,240,241,242,243,244,245,246,247,248,249,250,251,252,253,254,255,256,257,258,259,260,261,262,263,264,265,266,267,268,269,270,271,272,273,274,275,276,277,278,279,280,281,282,283,284,285,286,287,288,289,290,291,292,293,294,295,296,297,298,299,300,301,302,303,304,305,306,307,308,309,310,311,312,313,314,315,316,317,318,319,320,321,322,323,324,325,326,327,328,329,330,331,332,333,334,335,336,337,338,339,340,341,342,343,344,345,346,347,348,349,350,351,352,353,354,355,356,357,358,359,360,361,362,363,364,365,366,367,368,369,370,371,372,373,374,375,376,377,378,379,380,381,382,383,384,385,386,387,388,389,390,391,392,393,394,395,396,397,398,399,400,401,402,403,404,405,406,407,408,409,410,411,412,413,414,415,416,417,418,419,420,421,422,423,424,425,426,427,428,429,430,431,432,433,434,435,436,437,438,439,440,441,442,443,444,445,446,447,448,449,450,451,452,453,454,455,456,457,458,459,460,461,462,463,464,465,466,467,468,469,470,471,472,473,474,475,476,477,478,479,480,481,482,483,484,485,486,487,488,489,490,491,492,493,494,495,496,497,498,499,500,501,502,503,504,505,506,507,508,509,510,511,512,513,514,515,516,517,518,519,520,521,522,523,524,525,526,527,528,529,530,531,532,533,534,535,536,537,538,539,540,541,542,543,544,545,546,547,548,549,550,551,552,553,554,555,556,557,558,559,560,561,562,563,564,565,566,567,568,569,570,571,572,573,574,575,576,577,578,579,580,581,582,583,584,585,586,587,588,589,590,591,592,593,594,595,596,597,598,599,600,601,602,603,604,605,606,607,608,609,610,611,612,613,614,615,616,617,618,619,620,621,622,623,624,625,626,627,628,629,630,631,632,633,634,635,636,637,638,639,640,641,642,643,644,645,646,647,648,649,650,651,652,653,654,655,656,657,658,659,660,661,662,663,664,665,666,667,668,669,670,671,672,673,674,675,676,677,678,679,680,681,682,683,684,685,686,687,688,689,690,691,692,693,694,695,696,697,698,699,700,701,702,703,704,705,706,707,708,709,710,711,712,713,714,715,716,717,718,719,720,721,722,723,724,725,726,727,728,729,730,731,732,733,734,735,736,737,738,739,740,741,742,743,744,745,746,747,748,749,750,751,752,753,754,755,756,757,758,759,760,761,762,763,764,765,766,767,768,769,770,771,772,773,774,775,776,777,778,779,780,781,782,783,784,785,786,787,788,789,790,791,792,793,794,795,796,797,798,799,800,801,802,803,804,805,806,807,808,809,810,811,812,813,814,815,816,817,818,819,820,821,822,823,824,825,826,827,828,829,830,831,832,833,834,835,836,837,838,839,840,841,842,843,844,845,846,847,848,849,850,851,852,853,854,855,856,857,858,859,860,861,862,863,864,865,866,867,868,869,870,871,872,873,874,875,876,877,878,879,880,881,882,883,884,885,886,887,888,889,890,891,892,893,894,895,896,897,898,899,900,901,902,903,904,905,906,907,908,909,910,911,912,913,914,915,916,917,918,919,920,921,922,923,924,925,926,927,928,929,930,931,932,933,934,935,936,937,938,939,940,941,942,943,944,945,946,947,948,949,950,951,952,953,954,955,956,957,958,959,960,961,962,963,964,965,966,967,968,969,970,971,972,973,974,975,976,977,978,979,980,981,982,983,984,985,986,987,988,989,990,991,992,993,994,995,996,997,998,999,1000],"tree_info":[0,0,0,0,0,0,0,0,0,0,0,0,0,0,0,0,0,0,0,0,0,0,0,0,0,0,0,0,0,0,0,0,0,0,0,0,0,0,0,0,0,0,0,0,0,0,0,0,0,0,0,0,0,0,0,0,0,0,0,0,0,0,0,0,0,0,0,0,0,0,0,0,0,0,0,0,0,0,0,0,0,0,0,0,0,0,0,0,0,0,0,0,0,0,0,0,0,0,0,0,0,0,0,0,0,0,0,0,0,0,0,0,0,0,0,0,0,0,0,0,0,0,0,0,0,0,0,0,0,0,0,0,0,0,0,0,0,0,0,0,0,0,0,0,0,0,0,0,0,0,0,0,0,0,0,0,0,0,0,0,0,0,0,0,0,0,0,0,0,0,0,0,0,0,0,0,0,0,0,0,0,0,0,0,0,0,0,0,0,0,0,0,0,0,0,0,0,0,0,0,0,0,0,0,0,0,0,0,0,0,0,0,0,0,0,0,0,0,0,0,0,0,0,0,0,0,0,0,0,0,0,0,0,0,0,0,0,0,0,0,0,0,0,0,0,0,0,0,0,0,0,0,0,0,0,0,0,0,0,0,0,0,0,0,0,0,0,0,0,0,0,0,0,0,0,0,0,0,0,0,0,0,0,0,0,0,0,0,0,0,0,0,0,0,0,0,0,0,0,0,0,0,0,0,0,0,0,0,0,0,0,0,0,0,0,0,0,0,0,0,0,0,0,0,0,0,0,0,0,0,0,0,0,0,0,0,0,0,0,0,0,0,0,0,0,0,0,0,0,0,0,0,0,0,0,0,0,0,0,0,0,0,0,0,0,0,0,0,0,0,0,0,0,0,0,0,0,0,0,0,0,0,0,0,0,0,0,0,0,0,0,0,0,0,0,0,0,0,0,0,0,0,0,0,0,0,0,0,0,0,0,0,0,0,0,0,0,0,0,0,0,0,0,0,0,0,0,0,0,0,0,0,0,0,0,0,0,0,0,0,0,0,0,0,0,0,0,0,0,0,0,0,0,0,0,0,0,0,0,0,0,0,0,0,0,0,0,0,0,0,0,0,0,0,0,0,0,0,0,0,0,0,0,0,0,0,0,0,0,0,0,0,0,0,0,0,0,0,0,0,0,0,0,0,0,0,0,0,0,0,0,0,0,0,0,0,0,0,0,0,0,0,0,0,0,0,0,0,0,0,0,0,0,0,0,0,0,0,0,0,0,0,0,0,0,0,0,0,0,0,0,0,0,0,0,0,0,0,0,0,0,0,0,0,0,0,0,0,0,0,0,0,0,0,0,0,0,0,0,0,0,0,0,0,0,0,0,0,0,0,0,0,0,0,0,0,0,0,0,0,0,0,0,0,0,0,0,0,0,0,0,0,0,0,0,0,0,0,0,0,0,0,0,0,0,0,0,0,0,0,0,0,0,0,0,0,0,0,0,0,0,0,0,0,0,0,0,0,0,0,0,0,0,0,0,0,0,0,0,0,0,0,0,0,0,0,0,0,0,0,0,0,0,0,0,0,0,0,0,0,0,0,0,0,0,0,0,0,0,0,0,0,0,0,0,0,0,0,0,0,0,0,0,0,0,0,0,0,0,0,0,0,0,0,0,0,0,0,0,0,0,0,0,0,0,0,0,0,0,0,0,0,0,0,0,0,0,0,0,0,0,0,0,0,0,0,0,0,0,0,0,0,0,0,0,0,0,0,0,0,0,0,0,0,0,0,0,0,0,0,0,0,0,0,0,0,0,0,0,0,0,0,0,0,0,0,0,0,0,0,0,0,0,0,0,0,0,0,0,0,0,0,0,0,0,0,0,0,0,0,0,0,0,0,0,0,0,0,0,0,0,0,0,0,0,0,0,0,0,0,0,0,0,0,0,0,0,0,0,0,0,0,0,0,0,0,0,0,0,0,0,0,0,0,0,0,0,0,0,0,0,0,0,0,0,0,0,0,0,0,0,0,0,0,0,0,0,0,0,0,0,0,0,0,0,0,0,0,0,0,0,0,0,0,0,0,0,0,0,0,0,0,0,0,0,0,0,0,0,0,0,0,0,0,0,0,0,0,0,0,0,0,0,0,0,0,0,0,0,0,0,0,0,0,0,0,0,0,0,0,0,0,0,0,0,0,0,0,0,0,0,0,0,0,0,0,0,0,0,0,0,0,0,0,0,0,0,0,0,0,0,0,0,0,0,0,0,0,0,0,0,0,0,0,0,0,0,0,0,0,0,0,0,0,0,0,0,0,0,0],"trees":[{"base_weights":[-1.7896259E-8,-1.7445247E-1,6.44287E-2,-5.292675E-1,-1.34331E-1,1.6628475E-1,4.849617E-3,-4.8241252E-1,-6.5525314E-3,-2.2126612E-1,-1.0271398E-1,3.6223613E-2,1.9504747E-1,2.612691E-2,-1.4498577E-1,-4.9533185E-1,-1.2524068E-1,-2.4669306E-1,-6.417047E-2,-1.8155703E-1,-7.7711955E-2,-3.9530825E-2,9.159532E-2,1.9984917E-1,1.0536902E-1,1.1792561E-1,-5.3753764E-3,-3.754819E-1,-1.6343396E-2,-4.755881E-3,-5.300854E-3,-5.7602715E-4,-2.6252368E-3,-1.7785655E-3,-2.8616085E-3,-2.5680911E-4,-3.7086408E-3,-2.0607193E-3,-1.3554998E-3,-1.1925937E-3,-4.515542E-4,-1.733815E-4,-1.9093276E-3,1.0634034E-3,-1.0875069E-4,2.0722074E-3,1.4799068E-3,1.7445255E-3,-1.9172895E-3,1.46296E-3,-6.560598E-5,4.1653566E-5,-1.8563273E-3,-4.767335E-3,-2.2493794E-3,1.9480041E-5,-3.9947326E-3],"categories":[],"categories_nodes":[],"categories_segments":[],"categories_sizes":[],"default_left":[0,0,0,0,0,0,0,0,0,0,0,0,0,0,0,0,0,0,0,0,0,0,0,0,0,0,0,0,0,0,0,0,0,0,0,0,0,0,0,0,0,0,0,0,0,0,0,0,0,0,0,0,0,0,0,0,0],"id":0,"left_children":[1,3,5,7,9,11,13,15,-1,17,19,21,23,25,27,29,31,33,35,37,39,41,43,45,47,49,51,53,55,-1,-1,-1,-1,-1,-1,-1,-1,-1,-1,-1,-1,-1,-1,-1,-1,-1,-1,-1,-1,-1,-1,-1,-1,-1,-1,-1,-1],"loss_changes":[2.3437122E2,7.999045E1,9.241016E1,3.0545502E0,1.3868851E1,2.1016876E1,3.0638159E1,1.8760223E0,0E0,5.364708E0,7.2952347E0,4.2779717E0,1.9606018E0,2.433571E1,3.5427486E1,2.5787354E-2,1.334466E-1,3.097908E0,2.2215273E0,9.78117E-1,3.8050022E0,1.4448557E0,8.9109325E-1,1.6387482E0,4.8772483E0,7.594164E0,1.077696E1,6.416691E0,5.3829083E0,0E0,0E0,0E0,0E0,0E0,0E0,0E0,0E0,0E0,0E0,0E0,0E0,0E0,0E0,0E0,0E0,0E0,0E0,0E0,0E0,0E0,0E0,0E0,0E0,0E0,0E0,0E0,0E0],"parents":[2147483647,0,0,1,1,2,2,3,3,4,4,5,5,6,6,7,7,9,9,10,10,11,11,12,12,13,13,14,14,15,15,16,16,17,17,18,18,19,19,20,20,21,21,22,22,23,23,24,24,25,25,26,26,27,27,28,28],"right_children":[2,4,6,8,10,12,14,16,-1,18,20,22,24,26,28,30,32,34,36,38,40,42,44,46,48,50,52,54,56,-1,-1,-1,-1,-1,-1,-1,-1,-1,-1,-1,-1,-1,-1,-1,-1,-1,-1,-1,-1,-1,-1,-1,-1,-1,-1,-1,-1],"split_conditions":[4.975058E-3,1.381276E-3,2.1495327E-1,7.992941E-1,4.2655462E-1,1.4138671E-2,1E0,1.0524095E-9,-6.5525314E-3,3.76774E-1,4.104616E-2,5.5032975E-5,1E0,1.5132409E-2,4.104713E-10,1.6656269E-1,1.0088272E-2,7.1428575E-2,1E0,3.9668367E-3,1.0522804E-7,1E0,1E0,1E0,2.343443E-1,3.7950665E-1,1E0,3.9141863E-3,1.9710779E-4,-4.755881E-3,-5.300854E-3,-5.7602715E-4,-2.6252368E-3,-1.7785655E-3,-2.8616085E-3,-2.5680911E-4,-3.7086408E-3,-2.0607193E-3,-1.3554998E-3,-1.1925937E-3,-4.515542E-4,-1.733815E-4,-1.9093276E-3,1.0634034E-3,-1.0875069E-4,2.0722074E-3,1.4799068E-3,1.7445255E-3,-1.9172895E-3,1.46296E-3,-6.560598E-5,4.1653566E-5,-1.8563273E-3,-4.767335E-3,-2.2493794E-3,1.9480041E-5,-3.9947326E-3],"split_indices":[3,3,24,0,0,3,32,14,0,11,19,15,46,8,13,4,8,26,29,3,13,32,29,32,22,25,40,21,12,0,0,0,0,0,0,0,0,0,0,0,0,0,0,0,0,0,0,0,0,0,0,0,0,0,0,0,0],"split_type":[0,0,0,0,0,0,0,0,0,0,0,0,0,0,0,0,0,0,0,0,0,0,0,0,0,0,0,0,0,0,0,0,0,0,0,0,0,0,0,0,0,0,0,0,0,0,0,0,0,0,0,0,0,0,0,0,0],"sum_hessian":[2.085E4,5.623E3,1.5227E4,5.7E2,5.053E3,5.619E3,9.608E3,4.19E2,1.51E2,1.346E3,3.707E3,1.018E3,4.601E3,8.414E3,1.194E3,4.04E2,1.5E1,1.158E3,1.88E2,8.91E2,2.816E3,4.3E2,5.88E2,4.366E3,2.35E2,2.149E3,6.265E3,4.27E2,7.67E2,2.67E2,1.37E2,1.1E1,4E0,4.24E2,7.34E2,1.68E2,2E1,5.79E2,3.12E2,1.236E3,1.58E3,3.76E2,5.4E1,5.14E2,7.4E1,3.82E3,5.46E2,1.91E2,4.4E1,1.75E3,3.99E2,5.951E3,3.14E2,2.54E2,1.73E2,7.33E2,3.4E1],"tree_param":{"num_deleted":"0","num_feature":"57","num_nodes":"57","size_leaf_vector":"1"}},{"base_weights":[-2.065319E-6,-1.7271389E-1,6.378381E-2,-5.240095E-1,-1.329904E-1,1.6462229E-1,4.799932E-3,-4.7761998E-1,-6.4874375E-3,-2.1905985E-1,-1.01688206E-1,3.586027E-2,1.9309773E-1,2.586559E-2,-1.435451E-1,-4.9040338E-1,-1.2418836E-1,-2.4423014E-1,-6.354973E-2,-1.7974527E-1,-7.6935425E-2,-3.9140344E-2,9.0680994E-2,1.978515E-1,1.0431461E-1,1.1674703E-1,-5.321922E-3,-3.7174347E-1,-1.6185151E-2,-4.7085E-3,-5.248229E-3,-5.7074695E-4,-2.604235E-3,-1.7608218E-3,-2.8330311E-3,-2.5425592E-4,-3.6733204E-3,-2.0401475E-3,-1.341988E-3,-1.1806777E-3,-4.470414E-4,-1.7165221E-4,-1.8905817E-3,1.05279E-3,-1.0767742E-4,2.0514906E-3,1.4651348E-3,1.7271712E-3,-1.8985424E-3,1.4483391E-3,-6.4951375E-5,4.1237E-5,-1.837823E-3,-4.7198487E-3,-2.227015E-3,1.9285399E-5,-3.9559267E-3],"categories":[],"categories_nodes":[],"categories_segments":[],"categories_sizes":[],"default_left":[0,0,0,0,0,0,0,0,0,0,0,0,0,0,0,0,0,0,0,0,0,0,0,0,0,0,0,0,0,0,0,0,0,0,0,0,0,0,0,0,0,0,0,0,0,0,0,0,0,0,0,0,0,0,0,0,0],"id":1,"left_children":[1,3,5,7,9,11,13,15,-1,17,19,21,23,25,27,29,31,33,35,37,39,41,43,45,47,49,51,53,55,-1,-1,-1,-1,-1,-1,-1,-1,-1,-1,-1,-1,-1,-1,-1,-1,-1,-1,-1,-1,-1,-1,-1,-1,-1,-1,-1,-1],"loss_changes":[2.2971762E2,7.841148E1,9.057299E1,2.994156E0,1.3594017E1,2.0599121E1,3.0031704E1,1.8366776E0,0E0,5.2569504E0,7.1505127E0,4.193257E0,1.9216461E0,2.385181E1,3.4724663E1,2.5466919E-2,1.3142824E-1,3.036232E0,2.1795523E0,9.586277E-1,3.729353E0,1.4166679E0,8.734126E-1,1.6060028E0,4.781558E0,7.44314E0,1.0563161E1,6.2892876E0,5.27882E0,0E0,0E0,0E0,0E0,0E0,0E0,0E0,0E0,0E0,0E0,0E0,0E0,0E0,0E0,0E0,0E0,0E0,0E0,0E0,0E0,0E0,0E0,0E0,0E0,0E0,0E0,0E0,0E0],"parents":[2147483647,0,0,1,1,2,2,3,3,4,4,5,5,6,6,7,7,9,9,10,10,11,11,12,12,13,13,14,14,15,15,16,16,17,17,18,18,19,19,20,20,21,21,22,22,23,23,24,24,25,25,26,26,27,27,28,28],"right_children":[2,4,6,8,10,12,14,16,-1,18,20,22,24,26,28,30,32,34,36,38,40,42,44,46,48,50,52,54,56,-1,-1,-1,-1,-1,-1,-1,-1,-1,-1,-1,-1,-1,-1,-1,-1,-1,-1,-1,-1,-1,-1,-1,-1,-1,-1,-1,-1],"split_conditions":[4.975058E-3,1.381276E-3,2.1495327E-1,7.992941E-1,4.2655462E-1,1.4138671E-2,1E0,1.0524095E-9,-6.4874375E-3,3.76774E-1,4.104616E-2,5.5032975E-5,1E0,1.5132409E-2,4.104713E-10,1.6656269E-1,1.0088272E-2,7.1428575E-2,1E0,3.9668367E-3,1.0522804E-7,1E0,1E0,1E0,2.343443E-1,3.7950665E-1,1E0,3.9141863E-3,1.9710779E-4,-4.7085E-3,-5.248229E-3,-5.7074695E-4,-2.604235E-3,-1.7608218E-3,-2.8330311E-3,-2.5425592E-4,-3.6733204E-3,-2.0401475E-3,-1.341988E-3,-1.1806777E-3,-4.470414E-4,-1.7165221E-4,-1.8905817E-3,1.05279E-3,-1.0767742E-4,2.0514906E-3,1.4651348E-3,1.7271712E-3,-1.8985424E-3,1.4483391E-3,-6.4951375E-5,4.1237E-5,-1.837823E-3,-4.7198487E-3,-2.227015E-3,1.9285399E-5,-3.9559267E-3],"split_indices":[3,3,24,0,0,3,32,14,0,11,19,15,46,8,13,4,8,26,29,3,13,32,29,32,22,25,40,21,12,0,0,0,0,0,0,0,0,0,0,0,0,0,0,0,0,0,0,0,0,0,0,0,0,0,0,0,0],"split_type":[0,0,0,0,0,0,0,0,0,0,0,0,0,0,0,0,0,0,0,0,0,0,0,0,0,0,0,0,0,0,0,0,0,0,0,0,0,0,0,0,0,0,0,0,0,0,0,0,0,0,0,0,0,0,0,0,0],"sum_hessian":[2.085E4,5.623E3,1.5227E4,5.7E2,5.053E3,5.619E3,9.608E3,4.19E2,1.51E2,1.346E3,3.707E3,1.018E3,4.601E3,8.414E3,1.194E3,4.04E2,1.5E1,1.158E3,1.88E2,8.91E2,2.816E3,4.3E2,5.88E2,4.366E3,2.35E2,2.149E3,6.265E3,4.27E2,7.67E2,2.67E2,1.37E2,1.1E1,4E0,4.24E2,7.34E2,1.68E2,2E1,5.79E2,3.12E2,1.236E3,1.58E3,3.76E2,5.4E1,5.14E2,7.4E1,3.82E3,5.46E2,1.91E2,4.4E1,1.75E3,3.99E2,5.951E3,3.14E2,2.54E2,1.73E2,7.33E2,3.4E1],"tree_param":{"num_deleted":"0","num_feature":"57","num_nodes":"57","size_leaf_vector":"1"}},{"base_weights":[-4.0705663E-6,-1.7099266E-1,6.314538E-2,-5.188038E-1,-1.3166319E-1,1.6297649E-1,4.7507514E-3,-4.72875E-1,-6.42299E-3,-2.1687558E-1,-1.00672685E-1,3.5500575E-2,1.9116749E-1,2.5606882E-2,-1.4211878E-1,-4.855239E-1,-1.23144895E-1,-5.640538E-2,-2.4078844E-1,-1.7795162E-1,-7.616666E-2,-3.8753714E-2,8.9775786E-2,1.958738E-1,1.0327074E-1,1.1558021E-1,-5.2689966E-3,-3.6804226E-1,-1.602845E-2,-4.661591E-3,-5.196127E-3,-5.6551484E-4,-2.5834008E-3,-1.620496E-4,-3.6915839E-3,-1.7374847E-3,-2.8026628E-3,-2.0197814E-3,-1.3286107E-3,-1.1688807E-3,-4.4257392E-4,-1.6994013E-4,-1.8720194E-3,1.0422824E-3,-1.06614716E-4,2.0309812E-3,1.45051E-3,1.7099896E-3,-1.8799792E-3,1.4338639E-3,-6.4303305E-5,4.0824605E-5,-1.8195028E-3,-4.672835E-3,-2.2048731E-3,1.9092544E-5,-3.917498E-3],"categories":[],"categories_nodes":[],"categories_segments":[],"categories_sizes":[],"default_left":[0,0,0,0,0,0,0,0,0,0,0,0,0,0,0,0,0,0,0,0,0,0,0,0,0,0,0,0,0,0,0,0,0,0,0,0,0,0,0,0,0,0,0,0,0,0,0,0,0,0,0,0,0,0,0,0,0],"id":2,"left_children":[1,3,5,7,9,11,13,15,-1,17,19,21,23,25,27,29,31,33,35,37,39,41,43,45,47,49,51,53,55,-1,-1,-1,-1,-1,-1,-1,-1,-1,-1,-1,-1,-1,-1,-1,-1,-1,-1,-1,-1,-1,-1,-1,-1,-1,-1,-1,-1],"loss_changes":[2.2515645E2,7.686365E1,8.8772385E1,2.9349823E0,1.3324654E1,2.0189667E1,2.9437258E1,1.798172E0,0E0,5.155262E0,7.0086517E0,4.110219E0,1.8834839E0,2.3377523E1,3.403579E1,2.5123596E-2,1.2944022E-1,2.206831E0,3.0531158E0,9.395294E-1,3.6552105E0,1.3890301E0,8.560834E-1,1.5739288E0,4.687745E0,7.2951164E0,1.03536005E1,6.164402E0,5.1767445E0,0E0,0E0,0E0,0E0,0E0,0E0,0E0,0E0,0E0,0E0,0E0,0E0,0E0,0E0,0E0,0E0,0E0,0E0,0E0,0E0,0E0,0E0,0E0,0E0,0E0,0E0,0E0,0E0],"parents":[2147483647,0,0,1,1,2,2,3,3,4,4,5,5,6,6,7,7,9,9,10,10,11,11,12,12,13,13,14,14,15,15,16,16,17,17,18,18,19,19,20,20,21,21,22,22,23,23,24,24,25,25,26,26,27,27,28,28],"right_children":[2,4,6,8,10,12,14,16,-1,18,20,22,24,26,28,30,32,34,36,38,40,42,44,46,48,50,52,54,56,-1,-1,-1,-1,-1,-1,-1,-1,-1,-1,-1,-1,-1,-1,-1,-1,-1,-1,-1,-1,-1,-1,-1,-1,-1,-1,-1,-1],"split_conditions":[4.975058E-3,1.381276E-3,2.1495327E-1,7.992941E-1,4.2655462E-1,1.4138671E-2,1E0,1.0524095E-9,-6.42299E-3,1.3425472E-1,4.104616E-2,5.5032975E-5,1E0,1.5132409E-2,4.104713E-10,1.6656269E-1,1.0088272E-2,1E0,7.1428575E-2,3.9668367E-3,1.0522804E-7,1E0,1E0,1E0,2.343443E-1,3.7950665E-1,1E0,3.9141863E-3,1.9710779E-4,-4.661591E-3,-5.196127E-3,-5.6551484E-4,-2.5834008E-3,-1.620496E-4,-3.6915839E-3,-1.7374847E-3,-2.8026628E-3,-2.0197814E-3,-1.3286107E-3,-1.1688807E-3,-4.4257392E-4,-1.6994013E-4,-1.8720194E-3,1.0422824E-3,-1.06614716E-4,2.0309812E-3,1.45051E-3,1.7099896E-3,-1.8799792E-3,1.4338639E-3,-6.4303305E-5,4.0824605E-5,-1.8195028E-3,-4.672835E-3,-2.2048731E-3,1.9092544E-5,-3.917498E-3],"split_indices":[3,3,24,0,0,3,32,14,0,10,19,15,46,8,13,4,8,29,26,3,13,32,29,32,22,25,40,21,12,0,0,0,0,0,0,0,0,0,0,0,0,0,0,0,0,0,0,0,0,0,0,0,0,0,0,0,0],"split_type":[0,0,0,0,0,0,0,0,0,0,0,0,0,0,0,0,0,0,0,0,0,0,0,0,0,0,0,0,0,0,0,0,0,0,0,0,0,0,0,0,0,0,0,0,0,0,0,0,0,0,0,0,0,0,0,0,0],"sum_hessian":[2.085E4,5.623E3,1.5227E4,5.7E2,5.053E3,5.619E3,9.608E3,4.19E2,1.51E2,1.346E3,3.707E3,1.018E3,4.601E3,8.414E3,1.194E3,4.04E2,1.5E1,1.75E2,1.171E3,8.91E2,2.816E3,4.3E2,5.88E2,4.366E3,2.35E2,2.149E3,6.265E3,4.27E2,7.67E2,2.67E2,1.37E2,1.1E1,4E0,1.56E2,1.9E1,4.36E2,7.35E2,5.79E2,3.12E2,1.236E3,1.58E3,3.76E2,5.4E1,5.14E2,7.4E1,3.82E3,5.46E2,1.91E2,4.4E1,1.75E3,3.99E2,5.951E3,3.14E2,2.54E2,1.73E2,7.33E2,3.4E1],"tree_param":{"num_deleted":"0","num_feature":"57","num_nodes":"57","size_leaf_vector":"1"}},{"base_weights":[-6.03045E-6,-1.6928856E-1,6.251334E-2,-5.136497E-1,-1.3034919E-1,1.6134712E-1,4.7020814E-3,-6.353706E-3,-4.679768E-1,-2.1471305E-1,-9.9667296E-2,3.514447E-2,1.8925653E-1,2.5350764E-2,-1.407066E-1,-4.8051614E-1,-1.2211025E-1,-5.58632E-2,-2.3838444E-1,-1.7617588E-1,-7.540556E-2,-3.8370922E-2,8.887959E-2,1.9391586E-1,1.0223731E-1,1.14425056E-1,-5.2165957E-3,-3.6437792E-1,-1.5873224E-2,-4.6117543E-3,-5.1445416E-3,-6.414176E-4,-2.799803E-3,-1.6043927E-4,-3.6565135E-3,-1.7201497E-3,-2.7746742E-3,-1.9996185E-3,-1.3153673E-3,-1.1572011E-3,-4.3815107E-4,-1.6824531E-4,-1.8536397E-3,1.0318796E-3,-1.05562605E-4,2.010677E-3,1.4360311E-3,1.6929787E-3,-1.861597E-3,4.5906E-4,1.6306596E-3,4.041638E-5,-1.8013655E-3,-4.62629E-3,-2.1829507E-3,1.8902068E-5,-3.879442E-3],"categories":[],"categories_nodes":[],"categories_segments":[],"categories_sizes":[],"default_left":[0,0,0,0,0,0,0,0,0,0,0,0,0,0,0,0,0,0,0,0,0,0,0,0,0,0,0,0,0,0,0,0,0,0,0,0,0,0,0,0,0,0,0,0,0,0,0,0,0,0,0,0,0,0,0,0,0],"id":3,"left_children":[1,3,5,7,9,11,13,-1,15,17,19,21,23,25,27,29,31,33,35,37,39,41,43,45,47,49,51,53,55,-1,-1,-1,-1,-1,-1,-1,-1,-1,-1,-1,-1,-1,-1,-1,-1,-1,-1,-1,-1,-1,-1,-1,-1,-1,-1,-1,-1],"loss_changes":[2.206858E2,7.534642E1,8.700754E1,2.87706E0,1.3060585E1,1.9788345E1,2.8854567E1,0E0,1.7584915E0,5.0516624E0,6.8696213E0,4.0288258E0,1.8460693E0,2.291267E1,3.3360584E1,2.7923584E-2,1.2846537E-1,2.1651886E0,2.99234E0,9.208107E-1,3.5825348E0,1.3619314E0,8.39098E-1,1.5424805E0,4.595772E0,7.1580925E0,1.0148201E1,6.0420036E0,5.076643E0,0E0,0E0,0E0,0E0,0E0,0E0,0E0,0E0,0E0,0E0,0E0,0E0,0E0,0E0,0E0,0E0,0E0,0E0,0E0,0E0,0E0,0E0,0E0,0E0,0E0,0E0,0E0,0E0],"parents":[2147483647,0,0,1,1,2,2,3,3,4,4,5,5,6,6,8,8,9,9,10,10,11,11,12,12,13,13,14,14,15,15,16,16,17,17,18,18,19,19,20,20,21,21,22,22,23,23,24,24,25,25,26,26,27,27,28,28],"right_children":[2,4,6,8,10,12,14,-1,16,18,20,22,24,26,28,30,32,34,36,38,40,42,44,46,48,50,52,54,56,-1,-1,-1,-1,-1,-1,-1,-1,-1,-1,-1,-1,-1,-1,-1,-1,-1,-1,-1,-1,-1,-1,-1,-1,-1,-1,-1,-1],"split_conditions":[4.975058E-3,1.381276E-3,2.1495327E-1,6.9588914E-6,4.2655462E-1,1.4138671E-2,1E0,-6.353706E-3,1.0524095E-9,1.3425472E-1,4.104616E-2,5.5032975E-5,1E0,1.5132409E-2,4.104713E-10,1.6656269E-1,1E0,1E0,7.1428575E-2,3.9668367E-3,1.0522804E-7,1E0,1E0,1E0,2.343443E-1,2.0309296E-2,1E0,3.9141863E-3,1.9710779E-4,-4.6117543E-3,-5.1445416E-3,-6.414176E-4,-2.799803E-3,-1.6043927E-4,-3.6565135E-3,-1.7201497E-3,-2.7746742E-3,-1.9996185E-3,-1.3153673E-3,-1.1572011E-3,-4.3815107E-4,-1.6824531E-4,-1.8536397E-3,1.0318796E-3,-1.05562605E-4,2.010677E-3,1.4360311E-3,1.6929787E-3,-1.861597E-3,4.5906E-4,1.6306596E-3,4.041638E-5,-1.8013655E-3,-4.62629E-3,-2.1829507E-3,1.8902068E-5,-3.879442E-3],"split_indices":[3,3,24,12,0,3,32,0,14,10,19,15,46,8,13,4,29,29,26,3,13,32,29,32,22,3,40,21,12,0,0,0,0,0,0,0,0,0,0,0,0,0,0,0,0,0,0,0,0,0,0,0,0,0,0,0,0],"split_type":[0,0,0,0,0,0,0,0,0,0,0,0,0,0,0,0,0,0,0,0,0,0,0,0,0,0,0,0,0,0,0,0,0,0,0,0,0,0,0,0,0,0,0,0,0,0,0,0,0,0,0,0,0,0,0,0,0],"sum_hessian":[2.085E4,5.623E3,1.5227E4,5.7E2,5.053E3,5.619E3,9.608E3,1.52E2,4.18E2,1.346E3,3.707E3,1.018E3,4.601E3,8.414E3,1.194E3,4.03E2,1.5E1,1.75E2,1.171E3,8.91E2,2.816E3,4.3E2,5.88E2,4.366E3,2.35E2,2.149E3,6.265E3,4.27E2,7.67E2,2.66E2,1.37E2,1.2E1,3E0,1.56E2,1.9E1,4.36E2,7.35E2,5.79E2,3.12E2,1.236E3,1.58E3,3.76E2,5.4E1,5.14E2,7.4E1,3.82E3,5.46E2,1.91E2,4.4E1,8.93E2,1.256E3,5.951E3,3.14E2,2.54E2,1.73E2,7.33E2,3.4E1],"tree_param":{"num_deleted":"0","num_feature":"57","num_nodes":"57","size_leaf_vector":"1"}},{"base_weights":[-7.937216E-6,-1.676015E-1,6.1887663E-2,-5.085475E-1,-1.2904832E-1,1.5973401E-1,4.6539856E-3,-4.6352488E-1,-6.296063E-3,-2.1257211E-1,-9.867194E-2,3.4791958E-2,1.8736465E-1,2.5097298E-2,-1.3930845E-1,-8.208827E-2,-4.745424E-1,-2.3699746E-1,-6.166446E-2,-1.7441784E-1,-7.465206E-2,-3.799189E-2,8.799238E-2,1.9197747E-1,1.0121424E-1,1.1328177E-1,-5.164706E-3,-3.6075005E-1,-1.5719512E-2,4.437423E-5,-2.7788042E-3,-4.55068E-3,-5.0934693E-3,-1.7088338E-3,-2.7490421E-3,-2.4598508E-4,-3.570207E-3,-1.979657E-3,-1.3022558E-3,-1.1456383E-3,-4.3377228E-4,-1.6656714E-4,-1.8354404E-3,1.0215809E-3,-1.0452108E-4,1.990575E-3,1.421697E-3,1.6761374E-3,-1.843395E-3,1.406555E-3,-6.829963E-5,4.0012328E-5,-1.783409E-3,-4.580209E-3,-2.1612467E-3,1.871338E-5,-3.8417561E-3],"categories":[],"categories_nodes":[],"categories_segments":[],"categories_sizes":[],"default_left":[0,0,0,0,0,0,0,0,0,0,0,0,0,0,0,0,0,0,0,0,0,0,0,0,0,0,0,0,0,0,0,0,0,0,0,0,0,0,0,0,0,0,0,0,0,0,0,0,0,0,0,0,0,0,0,0,0],"id":4,"left_children":[1,3,5,7,9,11,13,15,-1,17,19,21,23,25,27,29,31,33,35,37,39,41,43,45,47,49,51,53,55,-1,-1,-1,-1,-1,-1,-1,-1,-1,-1,-1,-1,-1,-1,-1,-1,-1,-1,-1,-1,-1,-1,-1,-1,-1,-1,-1,-1],"loss_changes":[2.1630412E2,7.385933E1,8.527768E1,2.8203125E0,1.2801781E1,1.9395004E1,2.828345E1,1.7260895E0,0E0,4.95039E0,6.733345E0,3.9490447E0,1.8093872E0,2.2457182E1,3.269877E1,2.2146675E-1,4.475403E-2,2.8576813E0,2.0603256E0,9.024639E-1,3.5113049E0,1.3353617E0,8.224497E-1,1.5117035E0,4.5056057E0,7.0699596E0,9.946877E0,5.9220467E0,4.978478E0,0E0,0E0,0E0,0E0,0E0,0E0,0E0,0E0,0E0,0E0,0E0,0E0,0E0,0E0,0E0,0E0,0E0,0E0,0E0,0E0,0E0,0E0,0E0,0E0,0E0,0E0,0E0,0E0],"parents":[2147483647,0,0,1,1,2,2,3,3,4,4,5,5,6,6,7,7,9,9,10,10,11,11,12,12,13,13,14,14,15,15,16,16,17,17,18,18,19,19,20,20,21,21,22,22,23,23,24,24,25,25,26,26,27,27,28,28],"right_children":[2,4,6,8,10,12,14,16,-1,18,20,22,24,26,28,30,32,34,36,38,40,42,44,46,48,50,52,54,56,-1,-1,-1,-1,-1,-1,-1,-1,-1,-1,-1,-1,-1,-1,-1,-1,-1,-1,-1,-1,-1,-1,-1,-1,-1,-1,-1,-1],"split_conditions":[4.975058E-3,1.381276E-3,2.1495327E-1,7.992941E-1,4.2655462E-1,1.4138671E-2,1E0,1.927253E-2,-6.296063E-3,3.76774E-1,4.104616E-2,5.5032975E-5,1E0,1.5132409E-2,4.104713E-10,1E0,1.6656269E-1,7.1428575E-2,1E0,3.9668367E-3,1.0522804E-7,1E0,1E0,1E0,2.343443E-1,3.7950665E-1,1E0,3.9141863E-3,1.9710779E-4,4.437423E-5,-2.7788042E-3,-4.55068E-3,-5.0934693E-3,-1.7088338E-3,-2.7490421E-3,-2.4598508E-4,-3.570207E-3,-1.979657E-3,-1.3022558E-3,-1.1456383E-3,-4.3377228E-4,-1.6656714E-4,-1.8354404E-3,1.0215809E-3,-1.0452108E-4,1.990575E-3,1.421697E-3,1.6761374E-3,-1.843395E-3,1.406555E-3,-6.829963E-5,4.0012328E-5,-1.783409E-3,-4.580209E-3,-2.1612467E-3,1.871338E-5,-3.8417561E-3],"split_indices":[3,3,24,0,0,3,32,2,0,11,19,15,46,8,13,29,4,26,29,3,13,32,29,32,22,25,40,21,12,0,0,0,0,0,0,0,0,0,0,0,0,0,0,0,0,0,0,0,0,0,0,0,0,0,0,0,0],"split_type":[0,0,0,0,0,0,0,0,0,0,0,0,0,0,0,0,0,0,0,0,0,0,0,0,0,0,0,0,0,0,0,0,0,0,0,0,0,0,0,0,0,0,0,0,0,0,0,0,0,0,0,0,0,0,0,0,0],"sum_hessian":[2.085E4,5.623E3,1.5227E4,5.7E2,5.053E3,5.619E3,9.608E3,4.19E2,1.51E2,1.346E3,3.707E3,1.018E3,4.601E3,8.414E3,1.194E3,1.2E1,4.07E2,1.158E3,1.88E2,8.91E2,2.816E3,4.3E2,5.88E2,4.366E3,2.35E2,2.149E3,6.265E3,4.27E2,7.67E2,9E0,3E0,2.7E2,1.37E2,4.24E2,7.34E2,1.68E2,2E1,5.79E2,3.12E2,1.236E3,1.58E3,3.76E2,5.4E1,5.14E2,7.4E1,3.82E3,5.46E2,1.91E2,4.4E1,1.75E3,3.99E2,5.951E3,3.14E2,2.54E2,1.73E2,7.33E2,3.4E1],"tree_param":{"num_deleted":"0","num_feature":"57","num_nodes":"57","size_leaf_vector":"1"}},{"base_weights":[-9.797966E-6,-1.6593115E-1,6.126822E-2,-5.0349474E-1,-1.2776044E-1,1.5813708E-1,4.606317E-3,-6.2281494E-3,-4.5872265E-1,-2.1045256E-1,-9.7686544E-2,3.4442995E-2,1.8549173E-1,-5.1537972E-2,5.637043E-2,-4.7101167E-1,-1.1975489E-1,-5.471448E-2,-2.3366027E-1,-1.7267734E-1,-7.390611E-2,-3.761659E-2,8.711403E-2,1.9005848E-1,1.0020138E-1,-2.0635141E-2,-2.6496005E-1,1.260555E-1,1.7099138E-2,-4.5204735E-3,-5.042904E-3,-6.253023E-4,-2.7579628E-3,-1.5630755E-4,-3.5878597E-3,-1.6862979E-3,-2.7195464E-3,-1.9598946E-3,-1.289275E-3,-1.1341909E-3,-4.294376E-4,-1.6490562E-4,-1.8174193E-3,1.0113851E-3,-1.0348956E-4,1.9706748E-3,1.407506E-3,1.6594632E-3,-1.8253707E-3,-6.431893E-5,-2.9534225E-3,-4.3863207E-3,-2.859408E-4,1.6196498E-3,2.984512E-4,7.0228736E-4,-2.1979408E-4],"categories":[],"categories_nodes":[],"categories_segments":[],"categories_sizes":[],"default_left":[0,0,0,0,0,0,0,0,0,0,0,0,0,0,0,0,0,0,0,0,0,0,0,0,0,0,0,0,0,0,0,0,0,0,0,0,0,0,0,0,0,0,0,0,0,0,0,0,0,0,0,0,0,0,0,0,0],"id":5,"left_children":[1,3,5,7,9,11,13,-1,15,17,19,21,23,25,27,29,31,33,35,37,39,41,43,45,47,49,51,53,55,-1,-1,-1,-1,-1,-1,-1,-1,-1,-1,-1,-1,-1,-1,-1,-1,-1,-1,-1,-1,-1,-1,-1,-1,-1,-1,-1,-1],"loss_changes":[2.1200919E2,7.240114E1,8.358233E1,2.7646942E0,1.2548096E1,1.9009476E1,2.792915E1,0E0,1.6889801E0,4.8557167E0,6.599766E0,3.870843E0,1.7734528E0,3.039908E1,1.368096E1,2.6992798E-2,1.2562507E-1,2.0860193E0,2.872776E0,8.8448334E-1,3.4414873E0,1.30931E0,8.061323E-1,1.4815063E0,4.4172063E0,1.5714283E1,2.3919697E1,6.220831E0,6.6433964E0,0E0,0E0,0E0,0E0,0E0,0E0,0E0,0E0,0E0,0E0,0E0,0E0,0E0,0E0,0E0,0E0,0E0,0E0,0E0,0E0,0E0,0E0,0E0,0E0,0E0,0E0,0E0,0E0],"parents":[2147483647,0,0,1,1,2,2,3,3,4,4,5,5,6,6,8,8,9,9,10,10,11,11,12,12,13,13,14,14,15,15,16,16,17,17,18,18,19,19,20,20,21,21,22,22,23,23,24,24,25,25,26,26,27,27,28,28],"right_children":[2,4,6,8,10,12,14,-1,16,18,20,22,24,26,28,30,32,34,36,38,40,42,44,46,48,50,52,54,56,-1,-1,-1,-1,-1,-1,-1,-1,-1,-1,-1,-1,-1,-1,-1,-1,-1,-1,-1,-1,-1,-1,-1,-1,-1,-1,-1,-1],"split_conditions":[4.975058E-3,1.381276E-3,2.1495327E-1,6.9588914E-6,4.2655462E-1,1.4138671E-2,1.4941364E-4,-6.2281494E-3,1.0524095E-9,1.3425472E-1,4.104616E-2,5.5032975E-5,1E0,1E0,1.1067518E-1,1.6656269E-1,1E0,1E0,7.1428575E-2,3.9668367E-3,1.0522804E-7,1E0,1E0,1E0,2.343443E-1,1E0,1.5378061E-1,2.4329383E-2,4.1666666E-1,-4.5204735E-3,-5.042904E-3,-6.253023E-4,-2.7579628E-3,-1.5630755E-4,-3.5878597E-3,-1.6862979E-3,-2.7195464E-3,-1.9598946E-3,-1.289275E-3,-1.1341909E-3,-4.294376E-4,-1.6490562E-4,-1.8174193E-3,1.0113851E-3,-1.0348956E-4,1.9706748E-3,1.407506E-3,1.6594632E-3,-1.8253707E-3,-6.431893E-5,-2.9534225E-3,-4.3863207E-3,-2.859408E-4,1.6196498E-3,2.984512E-4,7.0228736E-4,-2.1979408E-4],"split_indices":[3,3,24,12,0,3,5,0,14,10,19,15,46,32,0,4,29,29,26,3,13,32,29,32,22,40,0,4,23,0,0,0,0,0,0,0,0,0,0,0,0,0,0,0,0,0,0,0,0,0,0,0,0,0,0,0,0],"split_type":[0,0,0,0,0,0,0,0,0,0,0,0,0,0,0,0,0,0,0,0,0,0,0,0,0,0,0,0,0,0,0,0,0,0,0,0,0,0,0,0,0,0,0,0,0,0,0,0,0,0,0,0,0,0,0,0,0],"sum_hessian":[2.085E4,5.623E3,1.5227E4,5.7E2,5.053E3,5.619E3,9.608E3,1.52E2,4.18E2,1.346E3,3.707E3,1.018E3,4.601E3,4.609E3,4.999E3,4.03E2,1.5E1,1.75E2,1.171E3,8.91E2,2.816E3,4.3E2,5.88E2,4.366E3,2.35E2,4.027E3,5.82E2,1.801E3,3.198E3,2.66E2,1.37E2,1.2E1,3E0,1.56E2,1.9E1,4.36E2,7.35E2,5.79E2,3.12E2,1.236E3,1.58E3,3.76E2,5.4E1,5.14E2,7.4E1,3.82E3,5.46E2,1.91E2,4.4E1,3.83E3,1.97E2,3.35E2,2.47E2,1.311E3,4.9E2,1.355E3,1.843E3],"tree_param":{"num_deleted":"0","num_feature":"57","num_nodes":"57","size_leaf_vector":"1"}},{"base_weights":[-1.1381866E-5,-1.5811095E-1,6.303966E-2,-4.9849334E-1,-1.2192184E-1,1.5737143E-1,6.2310696E-3,-4.543588E-1,-6.1716447E-3,-1.7403564E-1,-7.579319E-2,3.657905E-2,1.8363753E-1,-5.3281847E-2,5.6953218E-2,-8.040834E-2,-4.6516025E-1,-2.0279253E-1,-9.9003054E-2,-1.18107446E-1,-1.2845529E-2,-3.580939E-2,8.866578E-2,1.881587E-1,9.919868E-2,-2.2504857E-2,-2.6696602E-1,1.0959678E-1,7.477573E-3,4.9602924E-5,-2.7372784E-3,-4.460671E-3,-4.9928403E-3,-1.6276909E-3,-2.6889145E-3,-7.589037E-4,-2.6124783E-3,-1.5368728E-3,-9.4027584E-4,3.7167745E-4,-4.871029E-4,-1.5292612E-4,-1.8071096E-3,1.0169641E-3,-3.763238E-5,1.9509734E-3,1.3934567E-3,1.642955E-3,-1.8075224E-3,-7.957355E-5,-3.0232428E-3,-4.3661254E-3,-2.2756257E-4,1.5604203E-3,7.0605223E-4,8.7134406E-4,-1.9793602E-4],"categories":[],"categories_nodes":[],"categories_segments":[],"categories_sizes":[],"default_left":[0,0,0,0,0,0,0,0,0,0,0,0,0,0,0,0,0,0,0,0,0,0,0,0,0,0,0,0,0,0,0,0,0,0,0,0,0,0,0,0,0,0,0,0,0,0,0,0,0,0,0,0,0,0,0,0,0],"id":6,"left_children":[1,3,5,7,9,11,13,15,-1,17,19,21,23,25,27,29,31,33,35,37,39,41,43,45,47,49,51,53,55,-1,-1,-1,-1,-1,-1,-1,-1,-1,-1,-1,-1,-1,-1,-1,-1,-1,-1,-1,-1,-1,-1,-1,-1,-1,-1,-1,-1],"loss_changes":[2.0785988E2,7.317053E1,7.9883484E1,2.710205E0,1.2907982E1,1.7770157E1,2.809132E1,1.6590729E0,0E0,5.423813E0,7.597687E0,3.7811937E0,1.738205E0,2.81548E1,1.308456E1,2.1590224E-1,4.311371E-2,4.778984E0,2.6088614E0,1.447176E0,2.0609944E0,1.24586E0,7.025528E-1,1.4519043E0,4.3305416E0,1.5238198E1,2.2320484E1,4.3968906E0,5.630246E0,0E0,0E0,0E0,0E0,0E0,0E0,0E0,0E0,0E0,0E0,0E0,0E0,0E0,0E0,0E0,0E0,0E0,0E0,0E0,0E0,0E0,0E0,0E0,0E0,0E0,0E0,0E0,0E0],"parents":[2147483647,0,0,1,1,2,2,3,3,4,4,5,5,6,6,7,7,9,9,10,10,11,11,12,12,13,13,14,14,15,15,16,16,17,17,18,18,19,19,20,20,21,21,22,22,23,23,24,24,25,25,26,26,27,27,28,28],"right_children":[2,4,6,8,10,12,14,16,-1,18,20,22,24,26,28,30,32,34,36,38,40,42,44,46,48,50,52,54,56,-1,-1,-1,-1,-1,-1,-1,-1,-1,-1,-1,-1,-1,-1,-1,-1,-1,-1,-1,-1,-1,-1,-1,-1,-1,-1,-1,-1],"split_conditions":[5.1650126E-3,1.381276E-3,2.1495327E-1,7.992941E-1,3.7993013E-3,1.4138671E-2,8.750709E-5,1.927253E-2,-6.1716447E-3,7.4378496E-1,6.2068965E-2,5.5032975E-5,1E0,1E0,4.1666666E-1,1E0,1.6656269E-1,7.1428575E-2,1E0,5.051088E-1,1.0344828E-1,1E0,1E0,1E0,2.343443E-1,1E0,1.5378061E-1,1.1067518E-1,8.306957E-2,4.9602924E-5,-2.7372784E-3,-4.460671E-3,-4.9928403E-3,-1.6276909E-3,-2.6889145E-3,-7.589037E-4,-2.6124783E-3,-1.5368728E-3,-9.4027584E-4,3.7167745E-4,-4.871029E-4,-1.5292612E-4,-1.8071096E-3,1.0169641E-3,-3.763238E-5,1.9509734E-3,1.3934567E-3,1.642955E-3,-1.8075224E-3,-7.957355E-5,-3.0232428E-3,-4.3661254E-3,-2.2756257E-4,1.5604203E-3,7.0605223E-4,8.7134406E-4,-1.9793602E-4],"split_indices":[3,3,24,0,3,3,5,2,0,16,28,15,46,32,23,29,4,26,29,0,28,32,29,32,22,40,0,0,0,0,0,0,0,0,0,0,0,0,0,0,0,0,0,0,0,0,0,0,0,0,0,0,0,0,0,0,0],"split_type":[0,0,0,0,0,0,0,0,0,0,0,0,0,0,0,0,0,0,0,0,0,0,0,0,0,0,0,0,0,0,0,0,0,0,0,0,0,0,0,0,0,0,0,0,0,0,0,0,0,0,0,0,0,0,0,0,0],"sum_hessian":[2.085E4,5.944E3,1.4906E4,5.7E2,5.374E3,5.602E3,9.304E3,4.19E2,1.51E2,2.522E3,2.852E3,1.001E3,4.601E3,4.281E3,5.023E3,1.2E1,4.07E2,1.822E3,7E2,1.705E3,1.147E3,4.19E2,5.82E2,4.366E3,2.35E2,3.743E3,5.38E2,2.433E3,2.59E3,9E0,3E0,2.7E2,1.37E2,1.137E3,6.85E2,6.14E2,8.6E1,6.86E2,1.019E3,4.79E2,6.68E2,3.68E2,5.1E1,5.1E2,7.2E1,3.82E3,5.46E2,1.91E2,4.4E1,3.559E3,1.84E2,3.17E2,2.21E2,1.109E3,1.324E3,6.6E2,1.93E3],"tree_param":{"num_deleted":"0","num_feature":"57","num_nodes":"57","size_leaf_vector":"1"}},{"base_weights":[-1.2767443E-5,-1.5653466E-1,6.2409088E-2,-4.9354047E-1,-1.2070454E-1,1.557981E-1,6.168241E-3,-6.1050737E-3,-4.496515E-1,-1.7229833E-1,-7.503618E-2,3.621228E-2,1.8180186E-1,-5.2750826E-2,5.6384258E-2,-7.981099E-2,-4.6035978E-1,-2.0076695E-1,-9.801785E-2,-1.1692784E-1,-1.2717189E-2,-3.545595E-2,8.7780796E-2,1.8627788E-1,9.8206006E-2,-2.2280637E-2,-2.6430488E-1,1.08501725E-1,7.4030613E-3,4.9156606E-5,-2.7167487E-3,-4.4129356E-3,-4.9432735E-3,-1.6114283E-3,-2.662064E-3,-7.513271E-4,-2.5866542E-3,-1.5215267E-3,-9.3088247E-4,3.6796826E-4,-4.822393E-4,-1.5140082E-4,-1.789386E-3,1.0068143E-3,-3.7261427E-5,1.9314688E-3,1.3795479E-3,1.6266113E-3,-1.7898489E-3,-7.877805E-5,-2.993174E-3,-4.322602E-3,-2.2529712E-4,1.5448297E-3,6.989968E-4,8.6264365E-4,-1.9595759E-4],"categories":[],"categories_nodes":[],"categories_segments":[],"categories_sizes":[],"default_left":[0,0,0,0,0,0,0,0,0,0,0,0,0,0,0,0,0,0,0,0,0,0,0,0,0,0,0,0,0,0,0,0,0,0,0,0,0,0,0,0,0,0,0,0,0,0,0,0,0,0,0,0,0,0,0,0,0],"id":7,"left_children":[1,3,5,7,9,11,13,-1,15,17,19,21,23,25,27,29,31,33,35,37,39,41,43,45,47,49,51,53,55,-1,-1,-1,-1,-1,-1,-1,-1,-1,-1,-1,-1,-1,-1,-1,-1,-1,-1,-1,-1,-1,-1,-1,-1,-1,-1,-1,-1],"loss_changes":[2.037321E2,7.172604E1,7.8294754E1,2.6567535E0,1.2651665E1,1.7416946E1,2.7533503E1,0E0,1.6226425E0,5.3156204E0,7.4466877E0,3.706328E0,1.703659E0,2.759628E1,1.2824342E1,2.1266325E-1,4.5448303E-2,4.684105E0,2.5577502E0,1.4184418E0,2.0200517E0,1.2215803E0,6.886058E-1,1.4229126E0,4.2455783E0,1.4936628E1,2.1877663E1,4.3094807E0,5.518349E0,0E0,0E0,0E0,0E0,0E0,0E0,0E0,0E0,0E0,0E0,0E0,0E0,0E0,0E0,0E0,0E0,0E0,0E0,0E0,0E0,0E0,0E0,0E0,0E0,0E0,0E0,0E0,0E0],"parents":[2147483647,0,0,1,1,2,2,3,3,4,4,5,5,6,6,8,8,9,9,10,10,11,11,12,12,13,13,14,14,15,15,16,16,17,17,18,18,19,19,20,20,21,21,22,22,23,23,24,24,25,25,26,26,27,27,28,28],"right_children":[2,4,6,8,10,12,14,-1,16,18,20,22,24,26,28,30,32,34,36,38,40,42,44,46,48,50,52,54,56,-1,-1,-1,-1,-1,-1,-1,-1,-1,-1,-1,-1,-1,-1,-1,-1,-1,-1,-1,-1,-1,-1,-1,-1,-1,-1,-1,-1],"split_conditions":[5.1650126E-3,1.381276E-3,2.1495327E-1,6.9588914E-6,3.7993013E-3,1.4138671E-2,8.750709E-5,-6.1050737E-3,1.927253E-2,7.4378496E-1,6.2068965E-2,5.5032975E-5,1E0,1E0,4.1666666E-1,1E0,1.6656269E-1,7.1428575E-2,1E0,5.051088E-1,1.0344828E-1,1E0,1E0,1E0,2.343443E-1,1E0,1.5378061E-1,1.1067518E-1,8.306957E-2,4.9156606E-5,-2.7167487E-3,-4.4129356E-3,-4.9432735E-3,-1.6114283E-3,-2.662064E-3,-7.513271E-4,-2.5866542E-3,-1.5215267E-3,-9.3088247E-4,3.6796826E-4,-4.822393E-4,-1.5140082E-4,-1.789386E-3,1.0068143E-3,-3.7261427E-5,1.9314688E-3,1.3795479E-3,1.6266113E-3,-1.7898489E-3,-7.877805E-5,-2.993174E-3,-4.322602E-3,-2.2529712E-4,1.5448297E-3,6.989968E-4,8.6264365E-4,-1.9595759E-4],"split_indices":[3,3,24,12,3,3,5,0,2,16,28,15,46,32,23,29,4,26,29,0,28,32,29,32,22,40,0,0,0,0,0,0,0,0,0,0,0,0,0,0,0,0,0,0,0,0,0,0,0,0,0,0,0,0,0,0,0],"split_type":[0,0,0,0,0,0,0,0,0,0,0,0,0,0,0,0,0,0,0,0,0,0,0,0,0,0,0,0,0,0,0,0,0,0,0,0,0,0,0,0,0,0,0,0,0,0,0,0,0,0,0,0,0,0,0,0,0],"sum_hessian":[2.085E4,5.944E3,1.4906E4,5.7E2,5.374E3,5.602E3,9.304E3,1.52E2,4.18E2,2.522E3,2.852E3,1.001E3,4.601E3,4.281E3,5.023E3,1.2E1,4.06E2,1.822E3,7E2,1.705E3,1.147E3,4.19E2,5.82E2,4.366E3,2.35E2,3.743E3,5.38E2,2.433E3,2.59E3,9E0,3E0,2.69E2,1.37E2,1.137E3,6.85E2,6.14E2,8.6E1,6.86E2,1.019E3,4.79E2,6.68E2,3.68E2,5.1E1,5.1E2,7.2E1,3.82E3,5.46E2,1.91E2,4.4E1,3.559E3,1.84E2,3.17E2,2.21E2,1.109E3,1.324E3,6.6E2,1.93E3],"tree_param":{"num_deleted":"0","num_feature":"57","num_nodes":"57","size_leaf_vector":"1"}},{"base_weights":[-1.4116592E-5,-1.6104345E-1,5.9457183E-2,-4.8863682E-1,-1.2400014E-1,1.5343934E-1,4.483805E-3,-4.4537237E-1,-6.049686E-3,-2.0430893E-1,-9.479304E-2,3.340573E-2,1.799845E-1,2.4299925E-2,-1.3506192E-1,-4.5727947E-1,-1.1613791E-1,-5.2445706E-2,-2.2693999E-1,-1.6808718E-1,-7.1550876E-2,-3.6511824E-2,8.4511094E-2,1.8441585E-1,9.722325E-2,1.0948175E-1,-4.931679E-3,-3.4794655E-1,-1.6247226E-2,-4.3902327E-3,-4.8941993E-3,-5.997363E-4,-2.6963735E-3,-1.4069986E-4,-3.510728E-3,-1.6391822E-3,-2.6405083E-3,-1.9089654E-3,-1.252836E-3,-1.0997128E-3,-4.1444873E-4,-1.5989292E-4,-1.7652059E-3,9.813247E-4,-1.0149143E-4,1.912159E-3,1.3657776E-3,1.6104298E-3,-1.7723481E-3,4.3958882E-4,1.5599565E-3,3.8776056E-5,-1.7248935E-3,-4.410634E-3,-2.0948248E-3,1.04411665E-5,-3.7840714E-3],"categories":[],"categories_nodes":[],"categories_segments":[],"categories_sizes":[],"default_left":[0,0,0,0,0,0,0,0,0,0,0,0,0,0,0,0,0,0,0,0,0,0,0,0,0,0,0,0,0,0,0,0,0,0,0,0,0,0,0,0,0,0,0,0,0,0,0,0,0,0,0,0,0,0,0,0,0],"id":8,"left_children":[1,3,5,7,9,11,13,15,-1,17,19,21,23,25,27,29,31,33,35,37,39,41,43,45,47,49,51,53,55,-1,-1,-1,-1,-1,-1,-1,-1,-1,-1,-1,-1,-1,-1,-1,-1,-1,-1,-1,-1,-1,-1,-1,-1,-1,-1,-1,-1],"loss_changes":[1.9969174E2,6.818744E1,7.867504E1,2.6044312E0,1.183522E1,1.7901047E1,2.6574615E1,1.5933914E0,0E0,4.6175117E0,6.3046036E0,3.6441379E0,1.6698303E0,2.0953903E1,3.0220465E1,2.2766113E-2,1.21767804E-1,2.0120258E0,2.6977768E0,8.469639E-1,3.2538233E0,1.2355847E0,7.604532E-1,1.3944855E0,4.162281E0,6.5457497E0,9.2496805E0,5.425953E0,4.8097887E0,0E0,0E0,0E0,0E0,0E0,0E0,0E0,0E0,0E0,0E0,0E0,0E0,0E0,0E0,0E0,0E0,0E0,0E0,0E0,0E0,0E0,0E0,0E0,0E0,0E0,0E0,0E0,0E0],"parents":[2147483647,0,0,1,1,2,2,3,3,4,4,5,5,6,6,7,7,9,9,10,10,11,11,12,12,13,13,14,14,15,15,16,16,17,17,18,18,19,19,20,20,21,21,22,22,23,23,24,24,25,25,26,26,27,27,28,28],"right_children":[2,4,6,8,10,12,14,16,-1,18,20,22,24,26,28,30,32,34,36,38,40,42,44,46,48,50,52,54,56,-1,-1,-1,-1,-1,-1,-1,-1,-1,-1,-1,-1,-1,-1,-1,-1,-1,-1,-1,-1,-1,-1,-1,-1,-1,-1,-1,-1],"split_conditions":[4.975058E-3,1.381276E-3,2.1495327E-1,7.992941E-1,4.2655462E-1,1.4138671E-2,1E0,1.0524095E-9,-6.049686E-3,1.3425472E-1,4.104616E-2,5.5032975E-5,1E0,1.5132409E-2,4.104713E-10,1.6656269E-1,1E0,1E0,7.1428575E-2,3.9668367E-3,1.0522804E-7,1E0,1E0,1E0,2.343443E-1,2.0309296E-2,1E0,3.9141863E-3,1.9710779E-4,-4.3902327E-3,-4.8941993E-3,-5.997363E-4,-2.6963735E-3,-1.4069986E-4,-3.510728E-3,-1.6391822E-3,-2.6405083E-3,-1.9089654E-3,-1.252836E-3,-1.0997128E-3,-4.1444873E-4,-1.5989292E-4,-1.7652059E-3,9.813247E-4,-1.0149143E-4,1.912159E-3,1.3657776E-3,1.6104298E-3,-1.7723481E-3,4.3958882E-4,1.5599565E-3,3.8776056E-5,-1.7248935E-3,-4.410634E-3,-2.0948248E-3,1.04411665E-5,-3.7840714E-3],"split_indices":[3,3,24,0,0,3,32,14,0,10,19,15,46,8,13,4,29,29,26,3,13,32,29,32,22,3,47,21,12,0,0,0,0,0,0,0,0,0,0,0,0,0,0,0,0,0,0,0,0,0,0,0,0,0,0,0,0],"split_type":[0,0,0,0,0,0,0,0,0,0,0,0,0,0,0,0,0,0,0,0,0,0,0,0,0,0,0,0,0,0,0,0,0,0,0,0,0,0,0,0,0,0,0,0,0,0,0,0,0,0,0,0,0,0,0,0,0],"sum_hessian":[2.085E4,5.623E3,1.5227E4,5.7E2,5.053E3,5.619E3,9.608E3,4.19E2,1.51E2,1.346E3,3.707E3,1.018E3,4.601E3,8.414E3,1.194E3,4.04E2,1.5E1,1.75E2,1.171E3,8.91E2,2.816E3,4.3E2,5.88E2,4.366E3,2.35E2,2.149E3,6.265E3,4.27E2,7.67E2,2.67E2,1.37E2,1.2E1,3E0,1.56E2,1.9E1,4.36E2,7.35E2,5.79E2,3.12E2,1.236E3,1.58E3,3.76E2,5.4E1,5.14E2,7.4E1,3.82E3,5.46E2,1.91E2,4.4E1,8.93E2,1.256E3,5.953E3,3.12E2,2.54E2,1.73E2,7.33E2,3.4E1],"tree_param":{"num_deleted":"0","num_feature":"57","num_nodes":"57","size_leaf_vector":"1"}},{"base_weights":[-1.5866035E-5,-1.5345253E-1,6.117559E-2,-4.8378307E-1,-1.18332125E-1,1.527013E-1,6.0568606E-3,-5.984429E-3,-4.4075984E-1,-1.6901779E-1,-7.346767E-2,3.5505563E-2,1.7818531E-1,-5.1916257E-2,5.546666E-2,-7.818065E-2,-4.5125803E-1,-1.9682388E-1,-9.646499E-2,-1.1470528E-1,-1.2122014E-2,-3.475155E-2,8.6058706E-2,1.8257241E-1,9.625031E-2,-2.2061503E-2,-2.591969E-1,1.06793195E-1,7.2288117E-3,5.411172E-5,-2.67615E-3,-4.3256506E-3,-4.8456118E-3,-1.5801808E-3,-2.609116E-3,-7.388187E-4,-2.5499547E-3,-1.4932957E-3,-9.1272336E-4,3.6805193E-4,-4.7208613E-4,-1.482961E-4,-1.754524E-3,9.869714E-4,-3.5892837E-5,1.8680213E-3,1.070673E-3,1.5944091E-3,-1.7550185E-3,-7.79858E-5,-2.9640712E-3,-4.2410847E-3,-2.1804665E-4,6.948356E-4,1.520515E-3,8.494713E-4,-1.9378663E-4],"categories":[],"categories_nodes":[],"categories_segments":[],"categories_sizes":[],"default_left":[0,0,0,0,0,0,0,0,0,0,0,0,0,0,0,0,0,0,0,0,0,0,0,0,0,0,0,0,0,0,0,0,0,0,0,0,0,0,0,0,0,0,0,0,0,0,0,0,0,0,0,0,0,0,0,0,0],"id":9,"left_children":[1,3,5,7,9,11,13,-1,15,17,19,21,23,25,27,29,31,33,35,37,39,41,43,45,47,49,51,53,55,-1,-1,-1,-1,-1,-1,-1,-1,-1,-1,-1,-1,-1,-1,-1,-1,-1,-1,-1,-1,-1,-1,-1,-1,-1,-1,-1,-1],"loss_changes":[1.957797E2,6.8912735E1,7.5201614E1,2.553009E0,1.2210243E1,1.6727692E1,2.6656492E1,0E0,1.5596237E0,5.0709457E0,7.2159805E0,3.5618114E0,1.6366577E0,2.6492638E1,1.2438058E1,2.0730525E-1,4.3762207E-2,4.492531E0,2.490819E0,1.370533E0,1.9724971E0,1.1746721E0,6.6089964E-1,1.3746643E0,4.080618E0,1.4647851E1,2.1091919E1,4.0994167E0,5.3595448E0,0E0,0E0,0E0,0E0,0E0,0E0,0E0,0E0,0E0,0E0,0E0,0E0,0E0,0E0,0E0,0E0,0E0,0E0,0E0,0E0,0E0,0E0,0E0,0E0,0E0,0E0,0E0,0E0],"parents":[2147483647,0,0,1,1,2,2,3,3,4,4,5,5,6,6,8,8,9,9,10,10,11,11,12,12,13,13,14,14,15,15,16,16,17,17,18,18,19,19,20,20,21,21,22,22,23,23,24,24,25,25,26,26,27,27,28,28],"right_children":[2,4,6,8,10,12,14,-1,16,18,20,22,24,26,28,30,32,34,36,38,40,42,44,46,48,50,52,54,56,-1,-1,-1,-1,-1,-1,-1,-1,-1,-1,-1,-1,-1,-1,-1,-1,-1,-1,-1,-1,-1,-1,-1,-1,-1,-1,-1,-1],"split_conditions":[5.1650126E-3,1.381276E-3,2.1495327E-1,6.9588914E-6,3.7993013E-3,1.4138671E-2,8.750709E-5,-5.984429E-3,1.927253E-2,7.4378496E-1,6.2068965E-2,5.5032975E-5,1E0,1E0,4.1666666E-1,1E0,1.6656269E-1,7.1428575E-2,1E0,5.051088E-1,1.0344828E-1,1E0,1E0,1E0,2.343443E-1,1E0,1.5378061E-1,2.4019241E-2,8.306957E-2,5.411172E-5,-2.67615E-3,-4.3256506E-3,-4.8456118E-3,-1.5801808E-3,-2.609116E-3,-7.388187E-4,-2.5499547E-3,-1.4932957E-3,-9.1272336E-4,3.6805193E-4,-4.7208613E-4,-1.482961E-4,-1.754524E-3,9.869714E-4,-3.5892837E-5,1.8680213E-3,1.070673E-3,1.5944091E-3,-1.7550185E-3,-7.79858E-5,-2.9640712E-3,-4.2410847E-3,-2.1804665E-4,6.948356E-4,1.520515E-3,8.494713E-4,-1.9378663E-4],"split_indices":[3,3,24,12,3,3,5,0,2,16,28,15,46,32,23,29,4,26,29,0,28,32,29,45,22,40,0,3,0,0,0,0,0,0,0,0,0,0,0,0,0,0,0,0,0,0,0,0,0,0,0,0,0,0,0,0,0],"split_type":[0,0,0,0,0,0,0,0,0,0,0,0,0,0,0,0,0,0,0,0,0,0,0,0,0,0,0,0,0,0,0,0,0,0,0,0,0,0,0,0,0,0,0,0,0,0,0,0,0,0,0,0,0,0,0,0,0],"sum_hessian":[2.085E4,5.944E3,1.4906E4,5.7E2,5.374E3,5.602E3,9.304E3,1.52E2,4.18E2,2.522E3,2.852E3,1.001E3,4.601E3,4.281E3,5.023E3,1.2E1,4.06E2,1.822E3,7E2,1.705E3,1.147E3,4.19E2,5.82E2,4.366E3,2.35E2,3.743E3,5.38E2,2.433E3,2.59E3,9E0,3E0,2.69E2,1.37E2,1.137E3,6.85E2,6.14E2,8.6E1,6.86E2,1.019E3,4.79E2,6.68E2,3.68E2,5.1E1,5.1E2,7.2E1,4.133E3,2.33E2,1.91E2,4.4E1,3.559E3,1.84E2,3.17E2,2.21E2,1.335E3,1.098E3,6.6E2,1.93E3],"tree_param":{"num_deleted":"0","num_feature":"57","num_nodes":"57","size_leaf_vector":"1"}},{"base_weights":[-1.7177235E-5,-1.5192269E-1,6.056364E-2,-4.7897637E-1,-1.17150664E-1,1.5117462E-1,5.9957863E-3,-4.3656534E-1,-5.9301364E-3,-1.6733058E-1,-7.273389E-2,3.5149544E-2,1.7640407E-1,-4.845349E-2,5.757266E-2,-4.4823468E-1,-1.1390014E-1,-1.9485794E-1,-9.550505E-2,-1.1355964E-1,-1.2000897E-2,-3.4408566E-2,8.519973E-2,1.8074737E-1,9.5287114E-2,-1.8709974E-2,-2.5531837E-1,1.0722994E-1,8.2226945E-3,-4.3033375E-3,-4.7975066E-3,-5.845927E-4,-2.6560794E-3,-1.5643928E-3,-2.5830625E-3,-7.314427E-4,-2.5247484E-3,-1.4783847E-3,-9.036051E-4,3.6437903E-4,-4.6737253E-4,-1.4681715E-4,-1.737316E-3,9.771208E-4,-3.5538935E-5,1.8747947E-3,1.3339069E-3,1.5262399E-3,-1.9825106E-3,-4.4048382E-5,-2.9333152E-3,-4.183819E-3,-2.0084792E-4,1.5107737E-3,7.030852E-4,9.4124395E-4,-1.8614338E-4],"categories":[],"categories_nodes":[],"categories_segments":[],"categories_sizes":[],"default_left":[0,0,0,0,0,0,0,0,0,0,0,0,0,0,0,0,0,0,0,0,0,0,0,0,0,0,0,0,0,0,0,0,0,0,0,0,0,0,0,0,0,0,0,0,0,0,0,0,0,0,0,0,0,0,0,0,0],"id":10,"left_children":[1,3,5,7,9,11,13,15,-1,17,19,21,23,25,27,29,31,33,35,37,39,41,43,45,47,49,51,53,55,-1,-1,-1,-1,-1,-1,-1,-1,-1,-1,-1,-1,-1,-1,-1,-1,-1,-1,-1,-1,-1,-1,-1,-1,-1,-1,-1,-1],"loss_changes":[1.9189177E2,6.755232E1,7.370596E1,2.502716E0,1.1967796E1,1.6395172E1,2.613424E1,1.530365E0,0E0,4.96978E0,7.072565E0,3.4912908E0,1.6041412E0,2.7849352E1,1.17104645E1,2.2033691E-2,1.1904572E-1,4.4033356E0,2.4420185E0,1.3433189E0,1.9333133E0,1.1517792E0,6.47779E-1,1.3672333E0,4.0022707E0,1.5551634E1,2.1817307E1,3.8456192E0,5.529974E0,0E0,0E0,0E0,0E0,0E0,0E0,0E0,0E0,0E0,0E0,0E0,0E0,0E0,0E0,0E0,0E0,0E0,0E0,0E0,0E0,0E0,0E0,0E0,0E0,0E0,0E0,0E0,0E0],"parents":[2147483647,0,0,1,1,2,2,3,3,4,4,5,5,6,6,7,7,9,9,10,10,11,11,12,12,13,13,14,14,15,15,16,16,17,17,18,18,19,19,20,20,21,21,22,22,23,23,24,24,25,25,26,26,27,27,28,28],"right_children":[2,4,6,8,10,12,14,16,-1,18,20,22,24,26,28,30,32,34,36,38,40,42,44,46,48,50,52,54,56,-1,-1,-1,-1,-1,-1,-1,-1,-1,-1,-1,-1,-1,-1,-1,-1,-1,-1,-1,-1,-1,-1,-1,-1,-1,-1,-1,-1],"split_conditions":[5.1650126E-3,1.381276E-3,2.1495327E-1,7.992941E-1,3.7993013E-3,1.4138671E-2,1.4941364E-4,1.0524095E-9,-5.9301364E-3,7.4378496E-1,6.2068965E-2,5.5032975E-5,1E0,1E0,4.1666666E-1,1.6656269E-1,1E0,7.1428575E-2,1E0,5.051088E-1,1.0344828E-1,1E0,1E0,1E0,2.4658571E-1,1E0,1.5378061E-1,1.1067518E-1,8.306957E-2,-4.3033375E-3,-4.7975066E-3,-5.845927E-4,-2.6560794E-3,-1.5643928E-3,-2.5830625E-3,-7.314427E-4,-2.5247484E-3,-1.4783847E-3,-9.036051E-4,3.6437903E-4,-4.6737253E-4,-1.4681715E-4,-1.737316E-3,9.771208E-4,-3.5538935E-5,1.8747947E-3,1.3339069E-3,1.5262399E-3,-1.9825106E-3,-4.4048382E-5,-2.9333152E-3,-4.183819E-3,-2.0084792E-4,1.5107737E-3,7.030852E-4,9.4124395E-4,-1.8614338E-4],"split_indices":[3,3,24,0,3,3,5,14,0,16,28,15,46,32,23,4,29,26,29,0,28,32,29,32,22,47,0,0,0,0,0,0,0,0,0,0,0,0,0,0,0,0,0,0,0,0,0,0,0,0,0,0,0,0,0,0,0],"split_type":[0,0,0,0,0,0,0,0,0,0,0,0,0,0,0,0,0,0,0,0,0,0,0,0,0,0,0,0,0,0,0,0,0,0,0,0,0,0,0,0,0,0,0,0,0,0,0,0,0,0,0,0,0,0,0,0,0],"sum_hessian":[2.085E4,5.944E3,1.4906E4,5.7E2,5.374E3,5.602E3,9.304E3,4.19E2,1.51E2,2.522E3,2.852E3,1.001E3,4.601E3,4.526E3,4.778E3,4.04E2,1.5E1,1.822E3,7E2,1.705E3,1.147E3,4.19E2,5.82E2,4.366E3,2.35E2,3.958E3,5.68E2,2.381E3,2.397E3,2.67E2,1.37E2,1.2E1,3E0,1.137E3,6.85E2,6.14E2,8.6E1,6.86E2,1.019E3,4.79E2,6.68E2,3.68E2,5.1E1,5.1E2,7.2E1,3.82E3,5.46E2,1.97E2,3.8E1,3.763E3,1.95E2,3.35E2,2.33E2,1.087E3,1.294E3,5.7E2,1.827E3],"tree_param":{"num_deleted":"0","num_feature":"57","num_nodes":"57","size_leaf_vector":"1"}},{"base_weights":[-1.8481118E-5,-1.5629975E-1,5.769927E-2,-4.742186E-1,-1.2035042E-1,1.4888094E-1,4.363992E-3,-5.8661685E-3,-4.3204403E-1,-1.983448E-1,-9.1985054E-2,3.2399163E-2,1.7464063E-1,2.3708005E-2,-1.3185713E-1,-7.658288E-2,-4.423363E-1,-5.0244957E-2,-2.2041582E-1,-1.6362622E-1,-6.9267295E-2,-3.543964E-2,8.1985116E-2,1.7894062E-1,9.4332315E-2,1.0669506E-1,-4.770431E-3,-3.3848605E-1,-1.6532859E-2,5.888605E-5,-2.6361584E-3,-4.240094E-3,-4.7498792E-3,-1.2562882E-4,-3.43537E-3,-1.5934081E-3,-2.5637962E-3,-1.8353361E-3,-1.1658987E-3,-1.066246E-3,-3.999453E-4,-1.5503196E-4,-1.7145055E-3,9.521531E-4,-9.9553894E-5,1.83128E-3,1.0419913E-3,1.5633651E-3,-1.7231522E-3,1.3239826E-3,-6.0874445E-5,3.9915954E-5,-1.7031586E-3,-4.2866925E-3,-2.0437567E-3,5.017703E-6,-3.7330098E-3],"categories":[],"categories_nodes":[],"categories_segments":[],"categories_sizes":[],"default_left":[0,0,0,0,0,0,0,0,0,0,0,0,0,0,0,0,0,0,0,0,0,0,0,0,0,0,0,0,0,0,0,0,0,0,0,0,0,0,0,0,0,0,0,0,0,0,0,0,0,0,0,0,0,0,0,0,0],"id":11,"left_children":[1,3,5,7,9,11,13,-1,15,17,19,21,23,25,27,29,31,33,35,37,39,41,43,45,47,49,51,53,55,-1,-1,-1,-1,-1,-1,-1,-1,-1,-1,-1,-1,-1,-1,-1,-1,-1,-1,-1,-1,-1,-1,-1,-1,-1,-1,-1,-1],"loss_changes":[1.8808931E2,6.421947E1,7.405615E1,2.453308E0,1.116291E1,1.6857353E1,2.5323446E1,0E0,1.4990387E0,4.3918877E0,6.0235367E0,3.4306703E0,1.5723114E0,1.9888027E1,2.8470451E1,2.0207587E-1,4.2152405E-2,1.94081E0,2.5334282E0,8.138447E-1,3.0762691E0,1.1660304E0,7.174027E-1,1.3476715E0,3.92879E0,6.2333794E0,9.089598E0,5.0888405E0,4.6676407E0,0E0,0E0,0E0,0E0,0E0,0E0,0E0,0E0,0E0,0E0,0E0,0E0,0E0,0E0,0E0,0E0,0E0,0E0,0E0,0E0,0E0,0E0,0E0,0E0,0E0,0E0,0E0,0E0],"parents":[2147483647,0,0,1,1,2,2,3,3,4,4,5,5,6,6,8,8,9,9,10,10,11,11,12,12,13,13,14,14,15,15,16,16,17,17,18,18,19,19,20,20,21,21,22,22,23,23,24,24,25,25,26,26,27,27,28,28],"right_children":[2,4,6,8,10,12,14,-1,16,18,20,22,24,26,28,30,32,34,36,38,40,42,44,46,48,50,52,54,56,-1,-1,-1,-1,-1,-1,-1,-1,-1,-1,-1,-1,-1,-1,-1,-1,-1,-1,-1,-1,-1,-1,-1,-1,-1,-1,-1,-1],"split_conditions":[4.975058E-3,1.381276E-3,2.1495327E-1,6.9588914E-6,4.2655462E-1,1.4138671E-2,1E0,-5.8661685E-3,1.927253E-2,1.3425472E-1,4.104616E-2,5.5032975E-5,1E0,1.5132409E-2,4.104713E-10,1E0,1.6656269E-1,1E0,7.1428575E-2,4.141309E-3,1.0522804E-7,1E0,1E0,1E0,2.343443E-1,3.7950665E-1,1E0,3.9141863E-3,1.9710779E-4,5.888605E-5,-2.6361584E-3,-4.240094E-3,-4.7498792E-3,-1.2562882E-4,-3.43537E-3,-1.5934081E-3,-2.5637962E-3,-1.8353361E-3,-1.1658987E-3,-1.066246E-3,-3.999453E-4,-1.5503196E-4,-1.7145055E-3,9.521531E-4,-9.9553894E-5,1.83128E-3,1.0419913E-3,1.5633651E-3,-1.7231522E-3,1.3239826E-3,-6.0874445E-5,3.9915954E-5,-1.7031586E-3,-4.2866925E-3,-2.0437567E-3,5.017703E-6,-3.7330098E-3],"split_indices":[3,3,24,12,0,3,32,0,2,10,19,15,46,8,13,29,4,29,26,3,13,32,29,45,22,25,40,21,12,0,0,0,0,0,0,0,0,0,0,0,0,0,0,0,0,0,0,0,0,0,0,0,0,0,0,0,0],"split_type":[0,0,0,0,0,0,0,0,0,0,0,0,0,0,0,0,0,0,0,0,0,0,0,0,0,0,0,0,0,0,0,0,0,0,0,0,0,0,0,0,0,0,0,0,0,0,0,0,0,0,0,0,0,0,0,0,0],"sum_hessian":[2.085E4,5.623E3,1.5227E4,5.7E2,5.053E3,5.619E3,9.608E3,1.52E2,4.18E2,1.346E3,3.707E3,1.018E3,4.601E3,8.414E3,1.194E3,1.2E1,4.06E2,1.75E2,1.171E3,8.91E2,2.816E3,4.3E2,5.88E2,4.366E3,2.35E2,2.149E3,6.265E3,4.27E2,7.67E2,9E0,3E0,2.69E2,1.37E2,1.56E2,1.9E1,4.36E2,7.35E2,6.24E2,2.67E2,1.236E3,1.58E3,3.76E2,5.4E1,5.14E2,7.4E1,4.133E3,2.33E2,1.91E2,4.4E1,1.75E3,3.99E2,5.951E3,3.14E2,2.54E2,1.73E2,7.33E2,3.4E1],"tree_param":{"num_deleted":"0","num_feature":"57","num_nodes":"57","size_leaf_vector":"1"}},{"base_weights":[-2.0144045E-5,-1.4893207E-1,5.9366815E-2,-4.6950695E-1,-1.1484887E-1,1.4816967E-1,5.887852E-3,-4.2793247E-1,-5.8129495E-3,-1.6414985E-1,-7.121015E-2,3.4463856E-2,1.7289479E-1,-5.0612982E-2,5.4042846E-2,-4.393687E-1,-1.117075E-1,-6.336954E-2,-1.8299559E-1,-1.11399814E-1,-1.142377E-2,-3.3724945E-2,8.352875E-2,1.7715187E-1,9.338831E-2,-2.1655621E-2,-2.516626E-1,1.040516E-1,7.043483E-3,-4.218161E-3,-4.7027245E-3,-5.6981924E-4,-2.6163876E-3,-2.7736975E-4,-3.0061498E-3,-1.4573681E-3,-2.3926245E-3,-1.450841E-3,-8.860324E-4,3.6419946E-4,-4.5734024E-4,-1.4380696E-4,-1.7034616E-3,9.578664E-4,-3.4206794E-5,1.838167E-3,1.3027169E-3,1.4964957E-3,-1.946404E-3,-7.673361E-5,-2.936947E-3,-4.119727E-3,-2.0895641E-4,1.475662E-3,6.751932E-4,8.2849857E-4,-1.8909421E-4],"categories":[],"categories_nodes":[],"categories_segments":[],"categories_sizes":[],"default_left":[0,0,0,0,0,0,0,0,0,0,0,0,0,0,0,0,0,0,0,0,0,0,0,0,0,0,0,0,0,0,0,0,0,0,0,0,0,0,0,0,0,0,0,0,0,0,0,0,0,0,0,0,0,0,0,0,0],"id":12,"left_children":[1,3,5,7,9,11,13,15,-1,17,19,21,23,25,27,29,31,33,35,37,39,41,43,45,47,49,51,53,55,-1,-1,-1,-1,-1,-1,-1,-1,-1,-1,-1,-1,-1,-1,-1,-1,-1,-1,-1,-1,-1,-1,-1,-1,-1,-1,-1,-1],"loss_changes":[1.844031E2,6.490245E1,7.079372E1,2.404976E0,1.1552254E1,1.5746262E1,2.5319754E1,1.4698105E0,0E0,4.780281E0,6.853898E0,3.355185E0,1.5410767E0,2.4923784E1,1.1807575E1,2.1324158E-2,1.16372526E-1,3.3646736E0,4.420059E0,1.2971592E0,1.8861424E0,1.107541E0,6.216984E-1,1.3405151E0,3.8534749E0,1.4238878E1,1.9931305E1,3.859335E0,5.0990887E0,0E0,0E0,0E0,0E0,0E0,0E0,0E0,0E0,0E0,0E0,0E0,0E0,0E0,0E0,0E0,0E0,0E0,0E0,0E0,0E0,0E0,0E0,0E0,0E0,0E0,0E0,0E0,0E0],"parents":[2147483647,0,0,1,1,2,2,3,3,4,4,5,5,6,6,7,7,9,9,10,10,11,11,12,12,13,13,14,14,15,15,16,16,17,17,18,18,19,19,20,20,21,21,22,22,23,23,24,24,25,25,26,26,27,27,28,28],"right_children":[2,4,6,8,10,12,14,16,-1,18,20,22,24,26,28,30,32,34,36,38,40,42,44,46,48,50,52,54,56,-1,-1,-1,-1,-1,-1,-1,-1,-1,-1,-1,-1,-1,-1,-1,-1,-1,-1,-1,-1,-1,-1,-1,-1,-1,-1,-1,-1],"split_conditions":[5.1650126E-3,1.381276E-3,2.1495327E-1,7.992941E-1,3.7993013E-3,1.4138671E-2,8.750709E-5,1.0524095E-9,-5.8129495E-3,2.3919003E-1,6.2068965E-2,5.5032975E-5,1E0,1E0,4.1666666E-1,1.6656269E-1,1E0,1E0,7.1428575E-2,5.051088E-1,1.0344828E-1,1E0,1E0,1E0,2.4658571E-1,1E0,1.5378061E-1,1.1067518E-1,8.306957E-2,-4.218161E-3,-4.7027245E-3,-5.6981924E-4,-2.6163876E-3,-2.7736975E-4,-3.0061498E-3,-1.4573681E-3,-2.3926245E-3,-1.450841E-3,-8.860324E-4,3.6419946E-4,-4.5734024E-4,-1.4380696E-4,-1.7034616E-3,9.578664E-4,-3.4206794E-5,1.838167E-3,1.3027169E-3,1.4964957E-3,-1.946404E-3,-7.673361E-5,-2.936947E-3,-4.119727E-3,-2.0895641E-4,1.475662E-3,6.751932E-4,8.2849857E-4,-1.8909421E-4],"split_indices":[3,3,24,0,3,3,5,14,0,7,28,15,46,32,23,4,29,29,26,0,28,32,29,32,22,47,0,0,0,0,0,0,0,0,0,0,0,0,0,0,0,0,0,0,0,0,0,0,0,0,0,0,0,0,0,0,0],"split_type":[0,0,0,0,0,0,0,0,0,0,0,0,0,0,0,0,0,0,0,0,0,0,0,0,0,0,0,0,0,0,0,0,0,0,0,0,0,0,0,0,0,0,0,0,0,0,0,0,0,0,0,0,0,0,0,0,0],"sum_hessian":[2.085E4,5.944E3,1.4906E4,5.7E2,5.374E3,5.602E3,9.304E3,4.19E2,1.51E2,2.522E3,2.852E3,1.001E3,4.601E3,4.281E3,5.023E3,4.04E2,1.5E1,3.98E2,2.124E3,1.705E3,1.147E3,4.19E2,5.82E2,4.366E3,2.35E2,3.743E3,5.38E2,2.433E3,2.59E3,2.67E2,1.37E2,1.2E1,3E0,3.47E2,5.1E1,1.28E3,8.44E2,6.86E2,1.019E3,4.79E2,6.68E2,3.68E2,5.1E1,5.1E2,7.2E1,3.82E3,5.46E2,1.97E2,3.8E1,3.561E3,1.82E2,3.17E2,2.21E2,1.109E3,1.324E3,6.6E2,1.93E3],"tree_param":{"num_deleted":"0","num_feature":"57","num_nodes":"57","size_leaf_vector":"1"}},{"base_weights":[-2.1395497E-5,-1.4744736E-1,5.8772955E-2,-4.6484327E-1,-1.1370215E-1,1.466883E-1,5.828467E-3,-5.750245E-3,-4.2350063E-1,-1.6251117E-1,-7.0498906E-2,3.4118313E-2,1.7116645E-1,-4.723358E-2,5.6091297E-2,-7.501703E-2,-4.33591E-1,-6.27441E-2,-1.8116742E-1,-1.102872E-1,-1.1309604E-2,-3.3392083E-2,8.269507E-2,1.8636683E-1,1.4915806E-1,-1.8359223E-2,-2.4805318E-1,1.04478545E-1,8.003509E-3,6.348443E-5,-2.5967646E-3,-4.15623E-3,-4.656038E-3,-2.7460433E-4,-2.9766664E-3,-1.4428055E-3,-2.3687263E-3,-1.4363538E-3,-8.771809E-4,3.605652E-4,-4.527736E-4,-1.4237259E-4,-1.6867548E-3,9.483067E-4,-3.386935E-5,1.9465345E-3,1.1604555E-3,1.5868729E-3,-3.0076108E-4,-4.3231263E-5,-2.8781588E-3,-4.0667416E-3,-1.9229666E-4,1.4699546E-3,6.867708E-4,9.1753807E-4,-1.8161384E-4],"categories":[],"categories_nodes":[],"categories_segments":[],"categories_sizes":[],"default_left":[0,0,0,0,0,0,0,0,0,0,0,0,0,0,0,0,0,0,0,0,0,0,0,0,0,0,0,0,0,0,0,0,0,0,0,0,0,0,0,0,0,0,0,0,0,0,0,0,0,0,0,0,0,0,0,0,0],"id":13,"left_children":[1,3,5,7,9,11,13,-1,15,17,19,21,23,25,27,29,31,33,35,37,39,41,43,45,47,49,51,53,55,-1,-1,-1,-1,-1,-1,-1,-1,-1,-1,-1,-1,-1,-1,-1,-1,-1,-1,-1,-1,-1,-1,-1,-1,-1,-1,-1,-1],"loss_changes":[1.8074124E2,6.3621628E1,6.938575E1,2.357483E0,1.1322838E1,1.543325E1,2.4819538E1,0E0,1.4408188E0,4.6846466E0,6.7176857E0,3.2887564E0,1.511734E0,2.6245419E1,1.111911E1,1.9697225E-1,4.058838E-2,3.2991085E0,4.33226E0,1.2714005E0,1.8486742E0,1.0859569E0,6.093559E-1,1.561264E0,3.2242813E0,1.4972168E1,2.0644722E1,3.6157093E0,5.256446E0,0E0,0E0,0E0,0E0,0E0,0E0,0E0,0E0,0E0,0E0,0E0,0E0,0E0,0E0,0E0,0E0,0E0,0E0,0E0,0E0,0E0,0E0,0E0,0E0,0E0,0E0,0E0,0E0],"parents":[2147483647,0,0,1,1,2,2,3,3,4,4,5,5,6,6,8,8,9,9,10,10,11,11,12,12,13,13,14,14,15,15,16,16,17,17,18,18,19,19,20,20,21,21,22,22,23,23,24,24,25,25,26,26,27,27,28,28],"right_children":[2,4,6,8,10,12,14,-1,16,18,20,22,24,26,28,30,32,34,36,38,40,42,44,46,48,50,52,54,56,-1,-1,-1,-1,-1,-1,-1,-1,-1,-1,-1,-1,-1,-1,-1,-1,-1,-1,-1,-1,-1,-1,-1,-1,-1,-1,-1,-1],"split_conditions":[5.1650126E-3,1.381276E-3,2.1495327E-1,6.9588914E-6,3.7993013E-3,1.4138671E-2,1.4941364E-4,-5.750245E-3,1.927253E-2,2.3919003E-1,6.2068965E-2,5.5032975E-5,8.5427135E-2,1E0,4.1666666E-1,1E0,1.6656269E-1,1E0,7.1428575E-2,5.051088E-1,1.0344828E-1,1E0,1E0,1.0714286E-1,1E0,1E0,1.5378061E-1,1.1067518E-1,8.306957E-2,6.348443E-5,-2.5967646E-3,-4.15623E-3,-4.656038E-3,-2.7460433E-4,-2.9766664E-3,-1.4428055E-3,-2.3687263E-3,-1.4363538E-3,-8.771809E-4,3.605652E-4,-4.527736E-4,-1.4237259E-4,-1.6867548E-3,9.483067E-4,-3.386935E-5,1.9465345E-3,1.1604555E-3,1.5868729E-3,-3.0076108E-4,-4.3231263E-5,-2.8781588E-3,-4.0667416E-3,-1.9229666E-4,1.4699546E-3,6.867708E-4,9.1753807E-4,-1.8161384E-4],"split_indices":[3,3,24,12,3,3,5,0,2,7,28,15,24,32,23,29,4,29,26,0,28,32,29,26,46,47,0,0,0,0,0,0,0,0,0,0,0,0,0,0,0,0,0,0,0,0,0,0,0,0,0,0,0,0,0,0,0],"split_type":[0,0,0,0,0,0,0,0,0,0,0,0,0,0,0,0,0,0,0,0,0,0,0,0,0,0,0,0,0,0,0,0,0,0,0,0,0,0,0,0,0,0,0,0,0,0,0,0,0,0,0,0,0,0,0,0,0],"sum_hessian":[2.085E4,5.944E3,1.4906E4,5.7E2,5.374E3,5.602E3,9.304E3,1.52E2,4.18E2,2.522E3,2.852E3,1.001E3,4.601E3,4.526E3,4.778E3,1.2E1,4.06E2,3.98E2,2.124E3,1.705E3,1.147E3,4.19E2,5.82E2,2.717E3,1.884E3,3.958E3,5.68E2,2.381E3,2.397E3,9E0,3E0,2.69E2,1.37E2,3.47E2,5.1E1,1.28E3,8.44E2,6.86E2,1.019E3,4.79E2,6.68E2,3.68E2,5.1E1,5.1E2,7.2E1,2.429E3,2.88E2,1.789E3,9.5E1,3.763E3,1.95E2,3.35E2,2.33E2,1.087E3,1.294E3,5.7E2,1.827E3],"tree_param":{"num_deleted":"0","num_feature":"57","num_nodes":"57","size_leaf_vector":"1"}},{"base_weights":[-2.249279E-5,-1.5169549E-1,5.5993333E-2,-4.6022478E-1,-1.168079E-1,1.4445816E-1,4.247228E-3,-4.1947037E-1,-5.6980783E-3,-1.9278662E-1,-8.917571E-2,3.1422418E-2,1.6945577E-1,2.3131927E-2,-1.2873937E-1,-7.446173E-2,-4.294352E-1,-2.1518542E-1,-5.441103E-2,-1.5938322E-1,-6.691292E-2,-3.45336E-2,7.94388E-2,1.736315E-1,9.146884E-2,1.039758E-1,-4.6110447E-3,-3.292921E-1,-1.6805394E-2,6.291312E-5,-2.577289E-3,-4.1178637E-3,-4.609815E-3,-1.9744018E-3,-3.3791806E-3,-1.9728398E-4,-3.3093265E-3,-1.7448713E-3,-9.950264E-4,-1.0329301E-3,-3.840622E-4,-1.5134155E-4,-1.6652739E-3,9.225089E-4,-9.767561E-5,1.7777684E-3,9.96551E-4,1.5209649E-3,-1.6924175E-3,1.2895773E-3,-5.6425208E-5,4.072512E-5,-1.6867428E-3,-4.1662515E-3,-1.9941148E-3,-2.250396E-7,-3.682864E-3],"categories":[],"categories_nodes":[],"categories_segments":[],"categories_sizes":[],"default_left":[0,0,0,0,0,0,0,0,0,0,0,0,0,0,0,0,0,0,0,0,0,0,0,0,0,0,0,0,0,0,0,0,0,0,0,0,0,0,0,0,0,0,0,0,0,0,0,0,0,0,0,0,0,0,0,0,0],"id":14,"left_children":[1,3,5,7,9,11,13,15,-1,17,19,21,23,25,27,29,31,33,35,37,39,41,43,45,47,49,51,53,55,-1,-1,-1,-1,-1,-1,-1,-1,-1,-1,-1,-1,-1,-1,-1,-1,-1,-1,-1,-1,-1,-1,-1,-1,-1,-1,-1,-1],"loss_changes":[1.7716043E2,6.0482117E1,6.970876E1,2.3110657E0,1.0593468E1,1.5874672E1,2.4135136E1,1.4119644E0,0E0,4.163246E0,5.784998E0,3.229885E0,1.4827728E0,1.8874058E1,2.682062E1,1.9401343E-1,3.7330627E-2,2.4574928E0,1.8060752E0,7.8938866E-1,2.9174767E0,1.0985405E0,6.752236E-1,1.3214569E0,3.7560208E0,5.8884506E0,8.927559E0,4.7716637E0,4.5303216E0,0E0,0E0,0E0,0E0,0E0,0E0,0E0,0E0,0E0,0E0,0E0,0E0,0E0,0E0,0E0,0E0,0E0,0E0,0E0,0E0,0E0,0E0,0E0,0E0,0E0,0E0,0E0,0E0],"parents":[2147483647,0,0,1,1,2,2,3,3,4,4,5,5,6,6,7,7,9,9,10,10,11,11,12,12,13,13,14,14,15,15,16,16,17,17,18,18,19,19,20,20,21,21,22,22,23,23,24,24,25,25,26,26,27,27,28,28],"right_children":[2,4,6,8,10,12,14,16,-1,18,20,22,24,26,28,30,32,34,36,38,40,42,44,46,48,50,52,54,56,-1,-1,-1,-1,-1,-1,-1,-1,-1,-1,-1,-1,-1,-1,-1,-1,-1,-1,-1,-1,-1,-1,-1,-1,-1,-1,-1,-1],"split_conditions":[4.975058E-3,1.381276E-3,2.1495327E-1,7.992941E-1,4.2655462E-1,1.4138671E-2,1E0,1.927253E-2,-5.6980783E-3,3.76774E-1,4.104616E-2,5.2848263E-5,1E0,1.5132409E-2,4.104713E-10,1E0,1.6656269E-1,1E0,1E0,5.661163E-1,1.0522804E-7,1E0,1E0,1E0,2.343443E-1,3.7950665E-1,1E0,3.9141863E-3,1.9710779E-4,6.291312E-5,-2.577289E-3,-4.1178637E-3,-4.609815E-3,-1.9744018E-3,-3.3791806E-3,-1.9728398E-4,-3.3093265E-3,-1.7448713E-3,-9.950264E-4,-1.0329301E-3,-3.840622E-4,-1.5134155E-4,-1.6652739E-3,9.225089E-4,-9.767561E-5,1.7777684E-3,9.96551E-4,1.5209649E-3,-1.6924175E-3,1.2895773E-3,-5.6425208E-5,4.072512E-5,-1.6867428E-3,-4.1662515E-3,-1.9941148E-3,-2.250396E-7,-3.682864E-3],"split_indices":[3,3,24,0,0,3,32,2,0,11,19,15,46,8,13,29,4,32,29,10,13,32,29,45,22,25,40,21,12,0,0,0,0,0,0,0,0,0,0,0,0,0,0,0,0,0,0,0,0,0,0,0,0,0,0,0,0],"split_type":[0,0,0,0,0,0,0,0,0,0,0,0,0,0,0,0,0,0,0,0,0,0,0,0,0,0,0,0,0,0,0,0,0,0,0,0,0,0,0,0,0,0,0,0,0,0,0,0,0,0,0,0,0,0,0,0,0],"sum_hessian":[2.085E4,5.623E3,1.5227E4,5.7E2,5.053E3,5.619E3,9.608E3,4.19E2,1.51E2,1.346E3,3.707E3,1.018E3,4.601E3,8.414E3,1.194E3,1.2E1,4.07E2,1.158E3,1.88E2,8.91E2,2.816E3,4.29E2,5.89E2,4.366E3,2.35E2,2.149E3,6.265E3,4.27E2,7.67E2,9E0,3E0,2.7E2,1.37E2,1.014E3,1.44E2,1.68E2,2E1,7.1E2,1.81E2,1.236E3,1.58E3,3.75E2,5.4E1,5.15E2,7.4E1,4.133E3,2.33E2,1.91E2,4.4E1,1.75E3,3.99E2,5.951E3,3.14E2,2.54E2,1.73E2,7.33E2,3.4E1],"tree_param":{"num_deleted":"0","num_feature":"57","num_nodes":"57","size_leaf_vector":"1"}},{"base_weights":[-2.411733E-5,-1.445449E-1,5.761163E-2,-4.556522E-1,-1.1146828E-1,1.437729E-1,5.7234815E-3,-5.6366134E-3,-4.1512465E-1,-1.5948476E-1,-6.896668E-2,3.3452976E-2,1.6776177E-1,-4.9343318E-2,5.2656267E-2,-4.2624703E-1,-1.0833915E-1,-1.8570863E-1,-9.106025E-2,-1.081095E-1,-1.0737923E-2,-3.273024E-2,8.107475E-2,1.827881E-1,1.4600615E-1,-2.1257743E-2,-2.443397E-1,1.0138106E-1,6.863594E-3,-4.053278E-3,-4.5078564E-3,-5.4634054E-4,-2.5579592E-3,-1.4903616E-3,-2.4627354E-3,-6.94477E-4,-2.4279193E-3,-1.4072061E-3,-8.603897E-4,1.4031147E-4,-7.431955E-4,-2.0605585E-4,-2.411164E-3,9.2963513E-4,-3.2571897E-5,1.909924E-3,1.1317139E-3,1.5536644E-3,-3.0045124E-4,-7.275141E-5,-2.9021343E-3,-4.0017697E-3,-2.0012706E-4,1.4359803E-3,6.593788E-4,8.080671E-4,-1.8451404E-4],"categories":[],"categories_nodes":[],"categories_segments":[],"categories_sizes":[],"default_left":[0,0,0,0,0,0,0,0,0,0,0,0,0,0,0,0,0,0,0,0,0,0,0,0,0,0,0,0,0,0,0,0,0,0,0,0,0,0,0,0,0,0,0,0,0,0,0,0,0,0,0,0,0,0,0,0,0],"id":15,"left_children":[1,3,5,7,9,11,13,-1,15,17,19,21,23,25,27,29,31,33,35,37,39,41,43,45,47,49,51,53,55,-1,-1,-1,-1,-1,-1,-1,-1,-1,-1,-1,-1,-1,-1,-1,-1,-1,-1,-1,-1,-1,-1,-1,-1,-1,-1,-1,-1],"loss_changes":[1.7368803E2,6.112551E1,6.664464E1,2.2654724E0,1.0958176E1,1.4822441E1,2.4050797E1,0E0,1.3835297E0,4.5102463E0,6.501506E0,3.1607194E0,1.4777374E0,2.3445545E1,1.1209047E1,2.4665833E-2,1.1273171E-1,4.0122986E0,2.2819343E0,1.2157745E0,1.8089795E0,1.056208E0,5.848203E-1,1.5307922E0,3.1109428E0,1.4077951E1,1.883463E1,3.632534E0,4.8515053E0,0E0,0E0,0E0,0E0,0E0,0E0,0E0,0E0,0E0,0E0,0E0,0E0,0E0,0E0,0E0,0E0,0E0,0E0,0E0,0E0,0E0,0E0,0E0,0E0,0E0,0E0,0E0,0E0],"parents":[2147483647,0,0,1,1,2,2,3,3,4,4,5,5,6,6,8,8,9,9,10,10,11,11,12,12,13,13,14,14,15,15,16,16,17,17,18,18,19,19,20,20,21,21,22,22,23,23,24,24,25,25,26,26,27,27,28,28],"right_children":[2,4,6,8,10,12,14,-1,16,18,20,22,24,26,28,30,32,34,36,38,40,42,44,46,48,50,52,54,56,-1,-1,-1,-1,-1,-1,-1,-1,-1,-1,-1,-1,-1,-1,-1,-1,-1,-1,-1,-1,-1,-1,-1,-1,-1,-1,-1,-1],"split_conditions":[5.1650126E-3,1.381276E-3,2.1495327E-1,6.9588914E-6,3.7993013E-3,1.4138671E-2,8.750709E-5,-5.6366134E-3,1.0524095E-9,7.4378496E-1,6.2068965E-2,5.5032975E-5,8.5427135E-2,1E0,4.1666666E-1,5.0430503E-2,1E0,7.1428575E-2,1E0,5.051088E-1,1.5440053E-1,1E0,1E0,1.0714286E-1,1E0,1E0,1.5378061E-1,1.1067518E-1,8.306957E-2,-4.053278E-3,-4.5078564E-3,-5.4634054E-4,-2.5579592E-3,-1.4903616E-3,-2.4627354E-3,-6.94477E-4,-2.4279193E-3,-1.4072061E-3,-8.603897E-4,1.4031147E-4,-7.431955E-4,-2.0605585E-4,-2.411164E-3,9.2963513E-4,-3.2571897E-5,1.909924E-3,1.1317139E-3,1.5536644E-3,-3.0045124E-4,-7.275141E-5,-2.9021343E-3,-4.0017697E-3,-2.0012706E-4,1.4359803E-3,6.593788E-4,8.080671E-4,-1.8451404E-4],"split_indices":[3,3,24,12,3,3,5,0,14,16,28,15,24,32,23,9,29,26,29,0,18,47,29,26,46,40,0,0,0,0,0,0,0,0,0,0,0,0,0,0,0,0,0,0,0,0,0,0,0,0,0,0,0,0,0,0,0],"split_type":[0,0,0,0,0,0,0,0,0,0,0,0,0,0,0,0,0,0,0,0,0,0,0,0,0,0,0,0,0,0,0,0,0,0,0,0,0,0,0,0,0,0,0,0,0,0,0,0,0,0,0,0,0,0,0,0,0],"sum_hessian":[2.085E4,5.944E3,1.4906E4,5.7E2,5.374E3,5.602E3,9.304E3,1.52E2,4.18E2,2.522E3,2.852E3,1.001E3,4.601E3,4.281E3,5.023E3,4.03E2,1.5E1,1.822E3,7E2,1.705E3,1.147E3,4.19E2,5.82E2,2.717E3,1.884E3,3.743E3,5.38E2,2.433E3,2.59E3,2.27E2,1.76E2,1.2E1,3E0,1.137E3,6.85E2,6.14E2,8.6E1,6.86E2,1.019E3,8.26E2,3.21E2,3.97E2,2.2E1,5.1E2,7.2E1,2.429E3,2.88E2,1.789E3,9.5E1,3.559E3,1.84E2,3.17E2,2.21E2,1.109E3,1.324E3,6.6E2,1.93E3],"tree_param":{"num_deleted":"0","num_feature":"57","num_nodes":"57","size_leaf_vector":"1"}},{"base_weights":[-2.5266574E-5,-1.4310403E-1,5.7035394E-2,-4.5112598E-1,-1.10355444E-1,1.4233564E-1,5.6657786E-3,-4.1117543E-1,-5.5854768E-3,-1.5789272E-1,-6.8278015E-2,3.3116717E-2,1.660851E-1,-4.8851535E-2,5.2130245E-2,-7.294202E-2,-4.2094472E-1,-6.07579E-2,-1.760569E-1,-1.0702973E-1,-1.0631064E-2,-3.240917E-2,8.026553E-2,1.8096134E-1,1.4454678E-1,-2.1045936E-2,-2.4190408E-1,1.003681E-1,6.795217E-3,6.726366E-5,-2.5387746E-3,-4.036096E-3,-4.5193653E-3,-2.616598E-4,-2.9108922E-3,-1.3998484E-3,-2.3053295E-3,-1.3931545E-3,-8.5179415E-4,3.5895093E-4,-4.3997169E-4,-1.3628196E-4,-1.6505858E-3,9.203568E-4,-3.225091E-5,1.8908326E-3,1.1204359E-3,1.5381366E-3,-2.9747788E-4,-7.2023846E-5,-2.8732698E-3,-3.9618774E-3,-1.9813456E-4,1.4216333E-3,6.5278966E-4,7.999987E-4,-1.8266962E-4],"categories":[],"categories_nodes":[],"categories_segments":[],"categories_sizes":[],"default_left":[0,0,0,0,0,0,0,0,0,0,0,0,0,0,0,0,0,0,0,0,0,0,0,0,0,0,0,0,0,0,0,0,0,0,0,0,0,0,0,0,0,0,0,0,0,0,0,0,0,0,0,0,0,0,0,0,0],"id":16,"left_children":[1,3,5,7,9,11,13,15,-1,17,19,21,23,25,27,29,31,33,35,37,39,41,43,45,47,49,51,53,55,-1,-1,-1,-1,-1,-1,-1,-1,-1,-1,-1,-1,-1,-1,-1,-1,-1,-1,-1,-1,-1,-1,-1,-1,-1,-1,-1,-1],"loss_changes":[1.7023924E2,5.9919113E1,6.531928E1,2.22081E0,1.0740547E1,1.4528076E1,2.3573208E1,1.3571014E0,0E0,4.440815E0,6.3722305E0,3.098248E0,1.4483566E0,2.2980434E1,1.0986124E1,1.8910053E-1,3.678894E-2,3.1714575E0,4.1434937E0,1.1916351E0,1.7837306E0,1.0440904E0,5.7320905E-1,1.500206E0,3.0491714E0,1.3799345E1,1.8460962E1,3.5603237E0,4.7550864E0,0E0,0E0,0E0,0E0,0E0,0E0,0E0,0E0,0E0,0E0,0E0,0E0,0E0,0E0,0E0,0E0,0E0,0E0,0E0,0E0,0E0,0E0,0E0,0E0,0E0,0E0,0E0,0E0],"parents":[2147483647,0,0,1,1,2,2,3,3,4,4,5,5,6,6,7,7,9,9,10,10,11,11,12,12,13,13,14,14,15,15,16,16,17,17,18,18,19,19,20,20,21,21,22,22,23,23,24,24,25,25,26,26,27,27,28,28],"right_children":[2,4,6,8,10,12,14,16,-1,18,20,22,24,26,28,30,32,34,36,38,40,42,44,46,48,50,52,54,56,-1,-1,-1,-1,-1,-1,-1,-1,-1,-1,-1,-1,-1,-1,-1,-1,-1,-1,-1,-1,-1,-1,-1,-1,-1,-1,-1,-1],"split_conditions":[5.1650126E-3,1.381276E-3,2.1495327E-1,7.992941E-1,3.7993013E-3,1.4138671E-2,8.750709E-5,1.927253E-2,-5.5854768E-3,2.3919003E-1,6.2068965E-2,5.5032975E-5,8.5427135E-2,1E0,4.1666666E-1,1E0,1.6656269E-1,1E0,7.1428575E-2,5.051088E-1,1.0344828E-1,1E0,1E0,1.0714286E-1,1E0,1E0,1.5378061E-1,1.1067518E-1,8.306957E-2,6.726366E-5,-2.5387746E-3,-4.036096E-3,-4.5193653E-3,-2.616598E-4,-2.9108922E-3,-1.3998484E-3,-2.3053295E-3,-1.3931545E-3,-8.5179415E-4,3.5895093E-4,-4.3997169E-4,-1.3628196E-4,-1.6505858E-3,9.203568E-4,-3.225091E-5,1.8908326E-3,1.1204359E-3,1.5381366E-3,-2.9747788E-4,-7.2023846E-5,-2.8732698E-3,-3.9618774E-3,-1.9813456E-4,1.4216333E-3,6.5278966E-4,7.999987E-4,-1.8266962E-4],"split_indices":[3,3,24,0,3,3,5,2,0,7,28,15,24,32,23,29,4,29,26,0,28,32,29,26,46,40,0,0,0,0,0,0,0,0,0,0,0,0,0,0,0,0,0,0,0,0,0,0,0,0,0,0,0,0,0,0,0],"split_type":[0,0,0,0,0,0,0,0,0,0,0,0,0,0,0,0,0,0,0,0,0,0,0,0,0,0,0,0,0,0,0,0,0,0,0,0,0,0,0,0,0,0,0,0,0,0,0,0,0,0,0,0,0,0,0,0,0],"sum_hessian":[2.085E4,5.944E3,1.4906E4,5.7E2,5.374E3,5.602E3,9.304E3,4.19E2,1.51E2,2.522E3,2.852E3,1.001E3,4.601E3,4.281E3,5.023E3,1.2E1,4.07E2,3.98E2,2.124E3,1.705E3,1.147E3,4.19E2,5.82E2,2.717E3,1.884E3,3.743E3,5.38E2,2.433E3,2.59E3,9E0,3E0,2.7E2,1.37E2,3.47E2,5.1E1,1.28E3,8.44E2,6.86E2,1.019E3,4.79E2,6.68E2,3.68E2,5.1E1,5.1E2,7.2E1,2.429E3,2.88E2,1.789E3,9.5E1,3.559E3,1.84E2,3.17E2,2.21E2,1.109E3,1.324E3,6.6E2,1.93E3],"tree_param":{"num_deleted":"0","num_feature":"57","num_nodes":"57","size_leaf_vector":"1"}},{"base_weights":[-2.6306549E-5,-1.4722377E-1,5.433662E-2,-4.4664383E-1,-1.13366224E-1,1.401671E-1,4.1314303E-3,-5.5252262E-3,-4.0691563E-1,-1.8727994E-1,-8.648512E-2,3.0475492E-2,1.6442515E-1,2.2577614E-2,-1.2576711E-1,-4.1781577E-1,-1.06254816E-1,-4.674753E-2,-2.08224E-1,-1.5523279E-1,-6.468554E-2,-3.3523507E-2,7.706718E-2,1.7915283E-1,1.4310195E-1,1.0132801E-1,-4.4469503E-3,-3.2047457E-1,-1.7094517E-2,-3.9726966E-3,-4.419214E-3,-5.3244893E-4,-2.5197337E-3,-1.06409825E-4,-3.2784655E-3,-1.9077037E-3,-3.2862662E-3,-1.744815E-3,-1.0976382E-3,-1.0013849E-3,-3.690566E-4,-1.4501245E-4,-1.629571E-3,8.9511514E-4,-9.57742E-5,1.8719321E-3,1.1092701E-3,1.5227636E-3,-2.94534E-4,-9.59575E-5,1.2499548E-3,4.0586187E-5,-1.6622876E-3,-4.0495903E-3,-1.9481931E-3,-5.2642176E-6,-3.6406275E-3],"categories":[],"categories_nodes":[],"categories_segments":[],"categories_sizes":[],"default_left":[0,0,0,0,0,0,0,0,0,0,0,0,0,0,0,0,0,0,0,0,0,0,0,0,0,0,0,0,0,0,0,0,0,0,0,0,0,0,0,0,0,0,0,0,0,0,0,0,0,0,0,0,0,0,0,0,0],"id":17,"left_children":[1,3,5,7,9,11,13,-1,15,17,19,21,23,25,27,29,31,33,35,37,39,41,43,45,47,49,51,53,55,-1,-1,-1,-1,-1,-1,-1,-1,-1,-1,-1,-1,-1,-1,-1,-1,-1,-1,-1,-1,-1,-1,-1,-1,-1,-1,-1,-1],"loss_changes":[1.6685947E2,5.6963394E1,6.561894E1,2.1770172E0,1.0025505E1,1.4949287E1,2.3027279E1,0E0,1.3287659E0,3.954914E0,5.5470257E0,3.04106E0,1.4195786E0,1.7909212E1,2.527996E1,2.4536133E-2,1.10176206E-1,1.7828263E0,2.4002228E0,7.615433E-1,2.770708E0,1.0563484E0,6.3701534E-1,1.4702225E0,2.9886208E0,5.645563E0,8.622981E0,4.4647217E0,4.4147363E0,0E0,0E0,0E0,0E0,0E0,0E0,0E0,0E0,0E0,0E0,0E0,0E0,0E0,0E0,0E0,0E0,0E0,0E0,0E0,0E0,0E0,0E0,0E0,0E0,0E0,0E0,0E0,0E0],"parents":[2147483647,0,0,1,1,2,2,3,3,4,4,5,5,6,6,8,8,9,9,10,10,11,11,12,12,13,13,14,14,15,15,16,16,17,17,18,18,19,19,20,20,21,21,22,22,23,23,24,24,25,25,26,26,27,27,28,28],"right_children":[2,4,6,8,10,12,14,-1,16,18,20,22,24,26,28,30,32,34,36,38,40,42,44,46,48,50,52,54,56,-1,-1,-1,-1,-1,-1,-1,-1,-1,-1,-1,-1,-1,-1,-1,-1,-1,-1,-1,-1,-1,-1,-1,-1,-1,-1,-1,-1],"split_conditions":[4.975058E-3,1.381276E-3,2.1495327E-1,6.9588914E-6,4.2655462E-1,1.4138671E-2,1E0,-5.5252262E-3,1.0524095E-9,1.3425472E-1,4.104616E-2,5.2848263E-5,8.5427135E-2,1.5132409E-2,4.104713E-10,5.0430503E-2,1E0,1E0,1E0,4.141309E-3,1.0522804E-7,1E0,1E0,1.0714286E-1,1E0,8.279044E-3,1E0,3.9141863E-3,1.9710779E-4,-3.9726966E-3,-4.419214E-3,-5.3244893E-4,-2.5197337E-3,-1.06409825E-4,-3.2784655E-3,-1.9077037E-3,-3.2862662E-3,-1.744815E-3,-1.0976382E-3,-1.0013849E-3,-3.690566E-4,-1.4501245E-4,-1.629571E-3,8.9511514E-4,-9.57742E-5,1.8719321E-3,1.1092701E-3,1.5227636E-3,-2.94534E-4,-9.59575E-5,1.2499548E-3,4.0586187E-5,-1.6622876E-3,-4.0495903E-3,-1.9481931E-3,-5.2642176E-6,-3.6406275E-3],"split_indices":[3,3,24,12,0,3,32,0,14,10,19,15,24,8,13,9,29,29,32,3,13,32,29,26,46,2,47,21,12,0,0,0,0,0,0,0,0,0,0,0,0,0,0,0,0,0,0,0,0,0,0,0,0,0,0,0,0],"split_type":[0,0,0,0,0,0,0,0,0,0,0,0,0,0,0,0,0,0,0,0,0,0,0,0,0,0,0,0,0,0,0,0,0,0,0,0,0,0,0,0,0,0,0,0,0,0,0,0,0,0,0,0,0,0,0,0,0],"sum_hessian":[2.085E4,5.623E3,1.5227E4,5.7E2,5.053E3,5.619E3,9.608E3,1.52E2,4.18E2,1.346E3,3.707E3,1.018E3,4.601E3,8.414E3,1.194E3,4.03E2,1.5E1,1.75E2,1.171E3,8.91E2,2.816E3,4.29E2,5.89E2,2.717E3,1.884E3,2.149E3,6.265E3,4.27E2,7.67E2,2.27E2,1.76E2,1.2E1,3E0,1.56E2,1.9E1,1.025E3,1.46E2,6.24E2,2.67E2,1.236E3,1.58E3,3.75E2,5.4E1,5.15E2,7.4E1,2.429E3,2.88E2,1.789E3,9.5E1,3.78E2,1.771E3,5.953E3,3.12E2,2.54E2,1.73E2,7.33E2,3.4E1],"tree_param":{"num_deleted":"0","num_feature":"57","num_nodes":"57","size_leaf_vector":"1"}},{"base_weights":[-2.7807158E-5,-1.4028555E-1,5.5907816E-2,-4.422071E-1,-1.0818556E-1,1.3950703E-1,5.562593E-3,-4.0304458E-1,-5.4751006E-3,-1.5493995E-1,-6.680122E-2,3.247108E-2,1.627818E-1,-4.5389533E-2,5.3826813E-2,-7.1452595E-2,-4.1262215E-1,-5.9748594E-2,-1.7274062E-1,-1.04929216E-1,-1.0082437E-2,-3.176689E-2,7.869317E-2,1.773624E-1,1.4167155E-1,-1.7913224E-2,-2.3648499E-1,1.0028056E-1,7.6605696E-3,7.1450595E-5,-2.5008356E-3,-3.955952E-3,-4.430692E-3,-2.5623213E-4,-2.8697713E-3,-1.3715975E-3,-2.2647595E-3,-1.3655111E-3,-8.3528063E-4,1.4345632E-4,-7.279029E-4,-1.976042E-4,-2.3814985E-3,9.0223737E-4,-3.0988143E-5,1.8532203E-3,1.098216E-3,1.5075443E-3,-2.916196E-4,-4.075438E-5,-2.835638E-3,-3.8810119E-3,-1.7769022E-4,6.75215E-4,1.4212874E-3,8.808144E-4,-1.7464145E-4],"categories":[],"categories_nodes":[],"categories_segments":[],"categories_sizes":[],"default_left":[0,0,0,0,0,0,0,0,0,0,0,0,0,0,0,0,0,0,0,0,0,0,0,0,0,0,0,0,0,0,0,0,0,0,0,0,0,0,0,0,0,0,0,0,0,0,0,0,0,0,0,0,0,0,0,0,0],"id":18,"left_children":[1,3,5,7,9,11,13,15,-1,17,19,21,23,25,27,29,31,33,35,37,39,41,43,45,47,49,51,53,55,-1,-1,-1,-1,-1,-1,-1,-1,-1,-1,-1,-1,-1,-1,-1,-1,-1,-1,-1,-1,-1,-1,-1,-1,-1,-1,-1,-1],"loss_changes":[1.6359239E2,5.7569206E1,6.2740112E1,2.1340942E0,1.038974E1,1.3953117E1,2.288497E1,1.3043671E0,0E0,4.264824E0,6.168764E0,2.9776511E0,1.3913803E0,2.3765217E1,1.024825E1,1.8430656E-1,3.6239624E-2,3.0865965E0,4.0318336E0,1.1431198E0,1.759587E0,1.036025E0,5.5011153E-1,1.440834E0,2.9292793E0,1.4552191E1,1.8861652E1,3.255907E0,4.8468204E0,0E0,0E0,0E0,0E0,0E0,0E0,0E0,0E0,0E0,0E0,0E0,0E0,0E0,0E0,0E0,0E0,0E0,0E0,0E0,0E0,0E0,0E0,0E0,0E0,0E0,0E0,0E0,0E0],"parents":[2147483647,0,0,1,1,2,2,3,3,4,4,5,5,6,6,7,7,9,9,10,10,11,11,12,12,13,13,14,14,15,15,16,16,17,17,18,18,19,19,20,20,21,21,22,22,23,23,24,24,25,25,26,26,27,27,28,28],"right_children":[2,4,6,8,10,12,14,16,-1,18,20,22,24,26,28,30,32,34,36,38,40,42,44,46,48,50,52,54,56,-1,-1,-1,-1,-1,-1,-1,-1,-1,-1,-1,-1,-1,-1,-1,-1,-1,-1,-1,-1,-1,-1,-1,-1,-1,-1,-1,-1],"split_conditions":[5.1650126E-3,1.381276E-3,2.1495327E-1,7.992941E-1,3.7993013E-3,1.4138671E-2,1.4941364E-4,1.927253E-2,-5.4751006E-3,2.3919003E-1,6.2068965E-2,5.5032975E-5,8.5427135E-2,1E0,4.1666666E-1,1E0,1.6656269E-1,1E0,7.1428575E-2,5.051088E-1,1.5440053E-1,1E0,1E0,1.0714286E-1,1E0,1E0,1.5378061E-1,2.6481966E-2,8.306957E-2,7.1450595E-5,-2.5008356E-3,-3.955952E-3,-4.430692E-3,-2.5623213E-4,-2.8697713E-3,-1.3715975E-3,-2.2647595E-3,-1.3655111E-3,-8.3528063E-4,1.4345632E-4,-7.279029E-4,-1.976042E-4,-2.3814985E-3,9.0223737E-4,-3.0988143E-5,1.8532203E-3,1.098216E-3,1.5075443E-3,-2.916196E-4,-4.075438E-5,-2.835638E-3,-3.8810119E-3,-1.7769022E-4,6.75215E-4,1.4212874E-3,8.808144E-4,-1.7464145E-4],"split_indices":[3,3,24,0,3,3,5,2,0,7,28,15,24,32,23,29,4,29,26,0,18,47,29,26,46,47,0,3,0,0,0,0,0,0,0,0,0,0,0,0,0,0,0,0,0,0,0,0,0,0,0,0,0,0,0,0,0],"split_type":[0,0,0,0,0,0,0,0,0,0,0,0,0,0,0,0,0,0,0,0,0,0,0,0,0,0,0,0,0,0,0,0,0,0,0,0,0,0,0,0,0,0,0,0,0,0,0,0,0,0,0,0,0,0,0,0,0],"sum_hessian":[2.085E4,5.944E3,1.4906E4,5.7E2,5.374E3,5.602E3,9.304E3,4.19E2,1.51E2,2.522E3,2.852E3,1.001E3,4.601E3,4.526E3,4.778E3,1.2E1,4.07E2,3.98E2,2.124E3,1.705E3,1.147E3,4.19E2,5.82E2,2.717E3,1.884E3,3.958E3,5.68E2,2.381E3,2.397E3,9E0,3E0,2.7E2,1.37E2,3.47E2,5.1E1,1.28E3,8.44E2,6.86E2,1.019E3,8.26E2,3.21E2,3.97E2,2.2E1,5.1E2,7.2E1,2.429E3,2.88E2,1.789E3,9.5E1,3.763E3,1.95E2,3.35E2,2.33E2,1.337E3,1.044E3,5.7E2,1.827E3],"tree_param":{"num_deleted":"0","num_feature":"57","num_nodes":"57","size_leaf_vector":"1"}},{"base_weights":[-2.8843051E-5,-1.3888705E-1,5.5348635E-2,-4.3781355E-1,-1.0710548E-1,1.3811241E-1,5.5065323E-3,-5.4160417E-3,-3.9886898E-1,-1.5339322E-1,-6.6134185E-2,3.2144662E-2,1.611549E-1,2.3948783E-2,-1.2529391E-1,-4.0955123E-1,-1.0421258E-1,-1.7870456E-1,-8.7350495E-2,-1.0388121E-1,-9.982133E-3,-3.1455375E-2,7.790773E-2,1.7558986E-1,1.4025551E-1,1.0194001E-1,-3.321141E-3,-3.1579185E-1,-1.4847499E-2,-3.8937163E-3,-4.3323147E-3,-5.1889964E-4,-2.4820794E-3,-2.260193E-3,-1.3479484E-3,-6.639322E-4,-2.3449268E-3,-1.3518761E-3,-8.269358E-4,1.4202336E-4,-7.206466E-4,-1.9563326E-4,-2.358719E-3,8.9323265E-4,-3.0682444E-5,1.8346957E-3,1.087272E-3,1.4924775E-3,-2.8873354E-4,-9.3094226E-5,1.2410679E-3,5.3790936E-5,-1.6592253E-3,-3.9880294E-3,-1.8916103E-3,1.3984746E-5,-3.6874884E-3],"categories":[],"categories_nodes":[],"categories_segments":[],"categories_sizes":[],"default_left":[0,0,0,0,0,0,0,0,0,0,0,0,0,0,0,0,0,0,0,0,0,0,0,0,0,0,0,0,0,0,0,0,0,0,0,0,0,0,0,0,0,0,0,0,0,0,0,0,0,0,0,0,0,0,0,0,0],"id":19,"left_children":[1,3,5,7,9,11,13,-1,15,17,19,21,23,25,27,29,31,33,35,37,39,41,43,45,47,49,51,53,55,-1,-1,-1,-1,-1,-1,-1,-1,-1,-1,-1,-1,-1,-1,-1,-1,-1,-1,-1,-1,-1,-1,-1,-1,-1,-1,-1,-1],"loss_changes":[1.6034389E2,5.643271E1,6.1492413E1,2.0920029E0,1.0183376E1,1.36760025E1,2.244903E1,0E0,1.2761688E0,4.201912E0,6.0461054E0,2.9188046E0,1.3637161E0,1.7346642E1,2.41911E1,2.4360657E-2,1.0766795E-1,3.7569542E0,2.1461039E0,1.1204243E0,1.7246687E0,1.0163766E0,5.3919005E-1,1.4120483E0,2.871109E0,5.2119007E0,8.55116E0,4.360527E0,4.1918807E0,0E0,0E0,0E0,0E0,0E0,0E0,0E0,0E0,0E0,0E0,0E0,0E0,0E0,0E0,0E0,0E0,0E0,0E0,0E0,0E0,0E0,0E0,0E0,0E0,0E0,0E0,0E0,0E0],"parents":[2147483647,0,0,1,1,2,2,3,3,4,4,5,5,6,6,8,8,9,9,10,10,11,11,12,12,13,13,14,14,15,15,16,16,17,17,18,18,19,19,20,20,21,21,22,22,23,23,24,24,25,25,26,26,27,27,28,28],"right_children":[2,4,6,8,10,12,14,-1,16,18,20,22,24,26,28,30,32,34,36,38,40,42,44,46,48,50,52,54,56,-1,-1,-1,-1,-1,-1,-1,-1,-1,-1,-1,-1,-1,-1,-1,-1,-1,-1,-1,-1,-1,-1,-1,-1,-1,-1,-1,-1],"split_conditions":[5.1650126E-3,1.381276E-3,2.1495327E-1,6.9588914E-6,3.7993013E-3,1.4138671E-2,1E0,-5.4160417E-3,1.0524095E-9,7.4378496E-1,6.2068965E-2,5.5032975E-5,8.5427135E-2,1.5132409E-2,4.104713E-10,5.0430503E-2,1E0,4.5254126E-1,1E0,5.051088E-1,1.5440053E-1,1E0,1E0,1.0714286E-1,1E0,8.279044E-3,1E0,3.9141863E-3,1.9710779E-4,-3.8937163E-3,-4.3323147E-3,-5.1889964E-4,-2.4820794E-3,-2.260193E-3,-1.3479484E-3,-6.639322E-4,-2.3449268E-3,-1.3518761E-3,-8.269358E-4,1.4202336E-4,-7.206466E-4,-1.9563326E-4,-2.358719E-3,8.9323265E-4,-3.0682444E-5,1.8346957E-3,1.087272E-3,1.4924775E-3,-2.8873354E-4,-9.3094226E-5,1.2410679E-3,5.3790936E-5,-1.6592253E-3,-3.9880294E-3,-1.8916103E-3,1.3984746E-5,-3.6874884E-3],"split_indices":[3,3,24,12,3,3,32,0,14,16,28,15,24,8,13,9,29,7,29,0,18,47,29,26,46,2,40,21,12,0,0,0,0,0,0,0,0,0,0,0,0,0,0,0,0,0,0,0,0,0,0,0,0,0,0,0,0],"split_type":[0,0,0,0,0,0,0,0,0,0,0,0,0,0,0,0,0,0,0,0,0,0,0,0,0,0,0,0,0,0,0,0,0,0,0,0,0,0,0,0,0,0,0,0,0,0,0,0,0,0,0,0,0,0,0,0,0],"sum_hessian":[2.085E4,5.944E3,1.4906E4,5.7E2,5.374E3,5.602E3,9.304E3,1.52E2,4.18E2,2.522E3,2.852E3,1.001E3,4.601E3,8.155E3,1.149E3,4.03E2,1.5E1,1.822E3,7E2,1.705E3,1.147E3,4.19E2,5.82E2,2.717E3,1.884E3,2.112E3,6.043E3,4.21E2,7.28E2,2.27E2,1.76E2,1.2E1,3E0,8.75E2,9.47E2,6.14E2,8.6E1,6.86E2,1.019E3,8.26E2,3.21E2,3.97E2,2.2E1,5.1E2,7.2E1,2.429E3,2.88E2,1.789E3,9.5E1,3.51E2,1.761E3,5.737E3,3.06E2,2.53E2,1.68E2,6.97E2,3.1E1],"tree_param":{"num_deleted":"0","num_feature":"57","num_nodes":"57","size_leaf_vector":"1"}},{"base_weights":[-3.0160201E-5,-1.3750255E-1,5.4794647E-2,-4.3346456E-1,-1.06036164E-1,1.3673171E-1,5.450403E-3,-3.9507452E-1,-5.3669056E-3,-1.518619E-1,-6.547381E-2,3.1821523E-2,1.5954424E-1,-4.4734083E-2,5.2987486E-2,-6.999292E-2,-4.044642E-1,-5.82778E-2,-1.6936225E-1,-1.0284366E-1,-9.882834E-3,-3.1146914E-2,7.713013E-2,1.7383504E-1,1.3885356E-1,-1.7819071E-2,-2.3192531E-1,9.876055E-2,7.4977353E-3,7.5477656E-5,-2.4634642E-3,-3.8773983E-3,-4.3437607E-3,-2.4701093E-4,-2.8186273E-3,-1.3436032E-3,-2.2222388E-3,-1.4726488E-3,-8.808338E-4,3.5606616E-4,-4.250623E-4,-1.2734525E-4,-1.6120507E-3,8.843178E-4,-3.0379686E-5,1.8163563E-3,1.0764371E-3,1.4775608E-3,-2.8587636E-4,-4.1154784E-5,-2.8089306E-3,-3.807988E-3,-1.7167092E-4,6.6737545E-4,1.3966775E-3,8.663371E-4,-1.7225536E-4],"categories":[],"categories_nodes":[],"categories_segments":[],"categories_sizes":[],"default_left":[0,0,0,0,0,0,0,0,0,0,0,0,0,0,0,0,0,0,0,0,0,0,0,0,0,0,0,0,0,0,0,0,0,0,0,0,0,0,0,0,0,0,0,0,0,0,0,0,0,0,0,0,0,0,0,0,0],"id":20,"left_children":[1,3,5,7,9,11,13,15,-1,17,19,21,23,25,27,29,31,33,35,37,39,41,43,45,47,49,51,53,55,-1,-1,-1,-1,-1,-1,-1,-1,-1,-1,-1,-1,-1,-1,-1,-1,-1,-1,-1,-1,-1,-1,-1,-1,-1,-1,-1,-1],"loss_changes":[1.5715938E2,5.5318962E1,6.027008E1,2.0507584E0,9.981102E0,1.3404388E1,2.2200603E1,1.2537003E0,0E0,4.1221848E0,5.9258814E0,2.861121E0,1.3366165E0,2.2804045E1,9.950117E0,1.7962879E-1,3.5690308E-2,2.988429E0,3.901947E0,1.1056004E0,1.7051688E0,1.0037134E0,5.2848506E-1,1.3838425E0,2.8140945E0,1.4271271E1,1.8185423E1,3.1110306E0,4.693179E0,0E0,0E0,0E0,0E0,0E0,0E0,0E0,0E0,0E0,0E0,0E0,0E0,0E0,0E0,0E0,0E0,0E0,0E0,0E0,0E0,0E0,0E0,0E0,0E0,0E0,0E0,0E0,0E0],"parents":[2147483647,0,0,1,1,2,2,3,3,4,4,5,5,6,6,7,7,9,9,10,10,11,11,12,12,13,13,14,14,15,15,16,16,17,17,18,18,19,19,20,20,21,21,22,22,23,23,24,24,25,25,26,26,27,27,28,28],"right_children":[2,4,6,8,10,12,14,16,-1,18,20,22,24,26,28,30,32,34,36,38,40,42,44,46,48,50,52,54,56,-1,-1,-1,-1,-1,-1,-1,-1,-1,-1,-1,-1,-1,-1,-1,-1,-1,-1,-1,-1,-1,-1,-1,-1,-1,-1,-1,-1],"split_conditions":[5.1650126E-3,1.381276E-3,2.1495327E-1,7.992941E-1,3.7993013E-3,1.4138671E-2,1.4941364E-4,1.927253E-2,-5.3669056E-3,2.3919003E-1,6.2068965E-2,5.5032975E-5,8.5427135E-2,1E0,4.1666666E-1,1E0,1.6656269E-1,1E0,7.1428575E-2,1.0989075E-2,1.0344828E-1,1E0,1E0,1.0714286E-1,1E0,1E0,1.5378061E-1,2.6481966E-2,8.306957E-2,7.5477656E-5,-2.4634642E-3,-3.8773983E-3,-4.3437607E-3,-2.4701093E-4,-2.8186273E-3,-1.3436032E-3,-2.2222388E-3,-1.4726488E-3,-8.808338E-4,3.5606616E-4,-4.250623E-4,-1.2734525E-4,-1.6120507E-3,8.843178E-4,-3.0379686E-5,1.8163563E-3,1.0764371E-3,1.4775608E-3,-2.8587636E-4,-4.1154784E-5,-2.8089306E-3,-3.807988E-3,-1.7167092E-4,6.6737545E-4,1.3966775E-3,8.663371E-4,-1.7225536E-4],"split_indices":[3,3,24,0,3,3,5,2,0,7,28,15,24,32,23,29,4,29,26,1,28,32,29,26,46,47,0,3,0,0,0,0,0,0,0,0,0,0,0,0,0,0,0,0,0,0,0,0,0,0,0,0,0,0,0,0,0],"split_type":[0,0,0,0,0,0,0,0,0,0,0,0,0,0,0,0,0,0,0,0,0,0,0,0,0,0,0,0,0,0,0,0,0,0,0,0,0,0,0,0,0,0,0,0,0,0,0,0,0,0,0,0,0,0,0,0,0],"sum_hessian":[2.085E4,5.944E3,1.4906E4,5.7E2,5.374E3,5.602E3,9.304E3,4.19E2,1.51E2,2.522E3,2.852E3,1.001E3,4.601E3,4.526E3,4.778E3,1.2E1,4.07E2,3.98E2,2.124E3,1.705E3,1.147E3,4.19E2,5.82E2,2.717E3,1.884E3,3.958E3,5.68E2,2.381E3,2.397E3,9E0,3E0,2.7E2,1.37E2,3.47E2,5.1E1,1.28E3,8.44E2,4.23E2,1.282E3,4.79E2,6.68E2,3.68E2,5.1E1,5.1E2,7.2E1,2.429E3,2.88E2,1.789E3,9.5E1,3.763E3,1.95E2,3.35E2,2.33E2,1.337E3,1.044E3,5.7E2,1.827E3],"tree_param":{"num_deleted":"0","num_feature":"57","num_nodes":"57","size_leaf_vector":"1"}},{"base_weights":[-3.1102725E-5,-1.4146392E-1,5.2202825E-2,-4.2915788E-1,-1.08932324E-1,1.3464355E-1,3.980416E-3,-5.309014E-3,-3.9098147E-1,-1.8031184E-1,-8.2973E-2,2.925634E-2,1.5794972E-1,2.1806814E-2,-1.2155358E-1,-6.947667E-2,-4.0029004E-1,-2.0141579E-1,-4.99426E-2,-1.4997499E-1,-6.172744E-2,-3.2221455E-2,7.401261E-2,1.7209777E-1,1.3746569E-1,9.777218E-2,-4.262025E-3,-3.085879E-1,-1.7162623E-2,7.4798525E-5,-2.4449881E-3,-3.8358977E-3,-4.3006376E-3,-1.8403538E-3,-3.2168957E-3,-1.681005E-4,-3.1420253E-3,-1.6450299E-3,-9.239596E-4,-9.603461E-4,-3.4845914E-4,-1.3574773E-4,-1.5911111E-3,8.598503E-4,-9.344546E-5,1.7982004E-3,1.0657097E-3,1.4627938E-3,-2.830475E-4,-9.7242664E-5,1.2070861E-3,4.1115967E-5,-1.6247007E-3,-3.8962718E-3,-1.8804999E-3,-1.011635E-5,-3.5538157E-3],"categories":[],"categories_nodes":[],"categories_segments":[],"categories_sizes":[],"default_left":[0,0,0,0,0,0,0,0,0,0,0,0,0,0,0,0,0,0,0,0,0,0,0,0,0,0,0,0,0,0,0,0,0,0,0,0,0,0,0,0,0,0,0,0,0,0,0,0,0,0,0,0,0,0,0,0,0],"id":21,"left_children":[1,3,5,7,9,11,13,-1,15,17,19,21,23,25,27,29,31,33,35,37,39,41,43,45,47,49,51,53,55,-1,-1,-1,-1,-1,-1,-1,-1,-1,-1,-1,-1,-1,-1,-1,-1,-1,-1,-1,-1,-1,-1,-1,-1,-1,-1,-1,-1],"loss_changes":[1.5404605E2,5.258909E1,6.0538235E1,2.010315E0,9.349918E0,1.3799065E1,2.1505852E1,0E0,1.2261505E0,3.6959496E0,5.269064E0,2.80618E0,1.3100357E0,1.6664885E1,2.3326712E1,1.7692706E-1,3.740692E-2,2.3635826E0,1.649528E0,7.3096275E-1,2.594572E0,1.0152507E0,5.896163E-1,1.3561859E0,2.7582207E0,5.302185E0,8.301704E0,4.107563E0,4.1948943E0,0E0,0E0,0E0,0E0,0E0,0E0,0E0,0E0,0E0,0E0,0E0,0E0,0E0,0E0,0E0,0E0,0E0,0E0,0E0,0E0,0E0,0E0,0E0,0E0,0E0,0E0,0E0,0E0],"parents":[2147483647,0,0,1,1,2,2,3,3,4,4,5,5,6,6,8,8,9,9,10,10,11,11,12,12,13,13,14,14,15,15,16,16,17,17,18,18,19,19,20,20,21,21,22,22,23,23,24,24,25,25,26,26,27,27,28,28],"right_children":[2,4,6,8,10,12,14,-1,16,18,20,22,24,26,28,30,32,34,36,38,40,42,44,46,48,50,52,54,56,-1,-1,-1,-1,-1,-1,-1,-1,-1,-1,-1,-1,-1,-1,-1,-1,-1,-1,-1,-1,-1,-1,-1,-1,-1,-1,-1,-1],"split_conditions":[4.975058E-3,1.381276E-3,2.1495327E-1,6.9588914E-6,4.2655462E-1,1.4138671E-2,1E0,-5.309014E-3,1.927253E-2,3.76774E-1,4.104616E-2,5.2848263E-5,8.5427135E-2,1.5132409E-2,4.104713E-10,1E0,1.6656269E-1,1E0,1E0,5.661163E-1,1.0522804E-7,1E0,1E0,1.0714286E-1,1E0,8.279044E-3,1E0,3.9141863E-3,1.9710779E-4,7.4798525E-5,-2.4449881E-3,-3.8358977E-3,-4.3006376E-3,-1.8403538E-3,-3.2168957E-3,-1.681005E-4,-3.1420253E-3,-1.6450299E-3,-9.239596E-4,-9.603461E-4,-3.4845914E-4,-1.3574773E-4,-1.5911111E-3,8.598503E-4,-9.344546E-5,1.7982004E-3,1.0657097E-3,1.4627938E-3,-2.830475E-4,-9.7242664E-5,1.2070861E-3,4.1115967E-5,-1.6247007E-3,-3.8962718E-3,-1.8804999E-3,-1.011635E-5,-3.5538157E-3],"split_indices":[3,3,24,12,0,3,32,0,2,11,19,15,24,8,13,29,4,32,29,10,13,32,29,26,46,2,40,21,12,0,0,0,0,0,0,0,0,0,0,0,0,0,0,0,0,0,0,0,0,0,0,0,0,0,0,0,0],"split_type":[0,0,0,0,0,0,0,0,0,0,0,0,0,0,0,0,0,0,0,0,0,0,0,0,0,0,0,0,0,0,0,0,0,0,0,0,0,0,0,0,0,0,0,0,0,0,0,0,0,0,0,0,0,0,0,0,0],"sum_hessian":[2.085E4,5.623E3,1.5227E4,5.7E2,5.053E3,5.619E3,9.608E3,1.52E2,4.18E2,1.346E3,3.707E3,1.018E3,4.601E3,8.414E3,1.194E3,1.2E1,4.06E2,1.158E3,1.88E2,8.91E2,2.816E3,4.29E2,5.89E2,2.717E3,1.884E3,2.149E3,6.265E3,4.27E2,7.67E2,9E0,3E0,2.69E2,1.37E2,1.014E3,1.44E2,1.68E2,2E1,7.1E2,1.81E2,1.236E3,1.58E3,3.75E2,5.4E1,5.15E2,7.4E1,2.429E3,2.88E2,1.789E3,9.5E1,3.78E2,1.771E3,5.951E3,3.14E2,2.54E2,1.73E2,7.33E2,3.4E1],"tree_param":{"num_deleted":"0","num_feature":"57","num_nodes":"57","size_leaf_vector":"1"}},{"base_weights":[-3.247019E-5,-1.3479455E-1,5.371145E-2,-4.24894E-1,-1.0395147E-1,1.3401453E-1,5.3512277E-3,-3.8726088E-1,-5.260849E-3,-1.4903317E-1,-6.404782E-2,3.1201325E-2,1.5637107E-1,-4.4078976E-2,5.2173823E-2,-3.9761075E-1,-1.01075955E-1,-1.7362519E-1,-8.4867336E-2,-1.008132E-1,-9.356371E-3,-3.052986E-2,7.5619675E-2,1.7037784E-1,1.3609163E-1,-1.771345E-2,-2.2744812E-1,9.7277455E-2,7.349374E-3,-3.7814896E-3,-4.2054374E-3,-4.9734995E-4,-2.4266508E-3,-2.198535E-3,-1.3072472E-3,-6.4364966E-4,-2.2882235E-3,-1.312827E-3,-8.019225E-4,1.449236E-4,-7.057856E-4,-1.8753736E-4,-2.329806E-3,8.6691044E-4,-2.915807E-5,1.7802258E-3,1.0550893E-3,1.4481737E-3,-2.8024634E-4,-4.1428204E-5,-2.7823457E-3,-3.7364187E-3,-1.6556849E-4,6.597525E-4,1.3726316E-3,8.5222005E-4,-1.6979194E-4],"categories":[],"categories_nodes":[],"categories_segments":[],"categories_sizes":[],"default_left":[0,0,0,0,0,0,0,0,0,0,0,0,0,0,0,0,0,0,0,0,0,0,0,0,0,0,0,0,0,0,0,0,0,0,0,0,0,0,0,0,0,0,0,0,0,0,0,0,0,0,0,0,0,0,0,0,0],"id":22,"left_children":[1,3,5,7,9,11,13,15,-1,17,19,21,23,25,27,29,31,33,35,37,39,41,43,45,47,49,51,53,55,-1,-1,-1,-1,-1,-1,-1,-1,-1,-1,-1,-1,-1,-1,-1,-1,-1,-1,-1,-1,-1,-1,-1,-1,-1,-1,-1,-1],"loss_changes":[1.5102359E2,5.31491E1,5.7890236E1,1.9707108E0,9.659668E0,1.2873894E1,2.1538261E1,1.2038383E0,0E0,3.9664803E0,5.735731E0,2.7497902E0,1.2840042E0,2.1882315E1,9.661207E0,2.1728516E-2,1.0424021E-1,3.5866623E0,2.0542154E0,1.0613708E0,1.6771852E0,9.969467E-1,5.071683E-1,1.3290863E0,2.7034492E0,1.3995637E1,1.7536646E1,2.972353E0,4.544529E0,0E0,0E0,0E0,0E0,0E0,0E0,0E0,0E0,0E0,0E0,0E0,0E0,0E0,0E0,0E0,0E0,0E0,0E0,0E0,0E0,0E0,0E0,0E0,0E0,0E0,0E0,0E0,0E0],"parents":[2147483647,0,0,1,1,2,2,3,3,4,4,5,5,6,6,7,7,9,9,10,10,11,11,12,12,13,13,14,14,15,15,16,16,17,17,18,18,19,19,20,20,21,21,22,22,23,23,24,24,25,25,26,26,27,27,28,28],"right_children":[2,4,6,8,10,12,14,16,-1,18,20,22,24,26,28,30,32,34,36,38,40,42,44,46,48,50,52,54,56,-1,-1,-1,-1,-1,-1,-1,-1,-1,-1,-1,-1,-1,-1,-1,-1,-1,-1,-1,-1,-1,-1,-1,-1,-1,-1,-1,-1],"split_conditions":[5.1650126E-3,1.381276E-3,2.1495327E-1,7.992941E-1,3.7993013E-3,1.4138671E-2,1.4941364E-4,1.0524095E-9,-5.260849E-3,7.4378496E-1,6.2068965E-2,5.5032975E-5,8.5427135E-2,1E0,4.1666666E-1,5.0430503E-2,1E0,4.5254126E-1,1E0,5.051088E-1,1.5440053E-1,1E0,1E0,1.0714286E-1,1E0,1E0,1.5378061E-1,2.6481966E-2,8.306957E-2,-3.7814896E-3,-4.2054374E-3,-4.9734995E-4,-2.4266508E-3,-2.198535E-3,-1.3072472E-3,-6.4364966E-4,-2.2882235E-3,-1.312827E-3,-8.019225E-4,1.449236E-4,-7.057856E-4,-1.8753736E-4,-2.329806E-3,8.6691044E-4,-2.915807E-5,1.7802258E-3,1.0550893E-3,1.4481737E-3,-2.8024634E-4,-4.1428204E-5,-2.7823457E-3,-3.7364187E-3,-1.6556849E-4,6.597525E-4,1.3726316E-3,8.5222005E-4,-1.6979194E-4],"split_indices":[3,3,24,0,3,3,5,14,0,16,28,15,24,32,23,9,29,7,29,0,18,47,29,26,46,47,0,3,0,0,0,0,0,0,0,0,0,0,0,0,0,0,0,0,0,0,0,0,0,0,0,0,0,0,0,0,0],"split_type":[0,0,0,0,0,0,0,0,0,0,0,0,0,0,0,0,0,0,0,0,0,0,0,0,0,0,0,0,0,0,0,0,0,0,0,0,0,0,0,0,0,0,0,0,0,0,0,0,0,0,0,0,0,0,0,0,0],"sum_hessian":[2.085E4,5.944E3,1.4906E4,5.7E2,5.374E3,5.602E3,9.304E3,4.19E2,1.51E2,2.522E3,2.852E3,1.001E3,4.601E3,4.526E3,4.778E3,4.04E2,1.5E1,1.822E3,7E2,1.705E3,1.147E3,4.19E2,5.82E2,2.717E3,1.884E3,3.958E3,5.68E2,2.381E3,2.397E3,2.28E2,1.76E2,1.2E1,3E0,8.75E2,9.47E2,6.14E2,8.6E1,6.86E2,1.019E3,8.26E2,3.21E2,3.97E2,2.2E1,5.1E2,7.2E1,2.429E3,2.88E2,1.789E3,9.5E1,3.763E3,1.95E2,3.35E2,2.33E2,1.337E3,1.044E3,5.7E2,1.827E3],"tree_param":{"num_deleted":"0","num_feature":"57","num_nodes":"57","size_leaf_vector":"1"}},{"base_weights":[-3.343289E-5,-1.3345085E-1,5.3174227E-2,-4.206734E-1,-1.0291364E-1,1.3267481E-1,5.297286E-3,-5.2041034E-3,-3.832499E-1,-1.475454E-1,-6.340827E-2,3.0887637E-2,1.5480825E-1,-4.631898E-2,4.9289238E-2,-6.805993E-2,-3.9237577E-1,-5.643746E-2,-1.6458282E-1,-9.98063E-2,-9.26328E-3,-3.0230574E-2,7.486493E-2,1.6111894E-1,1.100649E-1,-2.0461554E-2,-2.2584383E-1,9.497097E-2,6.356532E-3,7.860136E-5,-2.4084512E-3,-3.7597269E-3,-4.216254E-3,-2.3518971E-4,-2.7565276E-3,-1.3029011E-3,-2.1637497E-3,-1.4306296E-3,-8.5433235E-4,3.5427758E-4,-4.1314753E-4,-1.856669E-4,-2.307521E-3,8.5825846E-4,-2.8870594E-5,1.6524475E-3,8.5640955E-4,1.4419467E-3,4.486928E-4,-6.884963E-5,-2.816086E-3,-3.704298E-3,-1.7716865E-4,1.3370047E-3,6.2454207E-4,7.5746555E-4,-1.7399636E-4],"categories":[],"categories_nodes":[],"categories_segments":[],"categories_sizes":[],"default_left":[0,0,0,0,0,0,0,0,0,0,0,0,0,0,0,0,0,0,0,0,0,0,0,0,0,0,0,0,0,0,0,0,0,0,0,0,0,0,0,0,0,0,0,0,0,0,0,0,0,0,0,0,0,0,0,0,0],"id":23,"left_children":[1,3,5,7,9,11,13,-1,15,17,19,21,23,25,27,29,31,33,35,37,39,41,43,45,47,49,51,53,55,-1,-1,-1,-1,-1,-1,-1,-1,-1,-1,-1,-1,-1,-1,-1,-1,-1,-1,-1,-1,-1,-1,-1,-1,-1,-1,-1,-1],"loss_changes":[1.4802478E2,5.210015E1,5.673898E1,1.9318161E0,9.467812E0,1.2618225E1,2.113115E1,0E0,1.1784935E0,3.9070244E0,5.621685E0,2.6954527E0,1.2816849E0,1.9872639E1,9.852668E0,1.7242528E-1,3.6758423E-2,2.8727949E0,3.7460098E0,1.0484505E0,1.6458746E0,9.7803676E-1,4.9709964E-1,1.2411423E0,1.266294E0,1.3272363E1,1.6213158E1,3.0569267E0,4.272429E0,0E0,0E0,0E0,0E0,0E0,0E0,0E0,0E0,0E0,0E0,0E0,0E0,0E0,0E0,0E0,0E0,0E0,0E0,0E0,0E0,0E0,0E0,0E0,0E0,0E0,0E0,0E0,0E0],"parents":[2147483647,0,0,1,1,2,2,3,3,4,4,5,5,6,6,8,8,9,9,10,10,11,11,12,12,13,13,14,14,15,15,16,16,17,17,18,18,19,19,20,20,21,21,22,22,23,23,24,24,25,25,26,26,27,27,28,28],"right_children":[2,4,6,8,10,12,14,-1,16,18,20,22,24,26,28,30,32,34,36,38,40,42,44,46,48,50,52,54,56,-1,-1,-1,-1,-1,-1,-1,-1,-1,-1,-1,-1,-1,-1,-1,-1,-1,-1,-1,-1,-1,-1,-1,-1,-1,-1,-1,-1],"split_conditions":[5.1650126E-3,1.381276E-3,2.1495327E-1,6.9588914E-6,3.7993013E-3,1.4138671E-2,8.750709E-5,-5.2041034E-3,1.927253E-2,2.3919003E-1,6.2068965E-2,5.5032975E-5,1E0,1E0,4.1666666E-1,1E0,1.6656269E-1,1E0,7.1428575E-2,1.0989075E-2,1.0344828E-1,1E0,1E0,1E0,1.6297518E-6,1E0,1.5378061E-1,1.1067518E-1,8.306957E-2,7.860136E-5,-2.4084512E-3,-3.7597269E-3,-4.216254E-3,-2.3518971E-4,-2.7565276E-3,-1.3029011E-3,-2.1637497E-3,-1.4306296E-3,-8.5433235E-4,3.5427758E-4,-4.1314753E-4,-1.856669E-4,-2.307521E-3,8.5825846E-4,-2.8870594E-5,1.6524475E-3,8.5640955E-4,1.4419467E-3,4.486928E-4,-6.884963E-5,-2.816086E-3,-3.704298E-3,-1.7716865E-4,1.3370047E-3,6.2454207E-4,7.5746555E-4,-1.7399636E-4],"split_indices":[3,3,24,12,3,3,5,0,2,7,28,15,32,32,23,29,4,29,26,1,28,47,29,46,13,40,0,0,0,0,0,0,0,0,0,0,0,0,0,0,0,0,0,0,0,0,0,0,0,0,0,0,0,0,0,0,0],"split_type":[0,0,0,0,0,0,0,0,0,0,0,0,0,0,0,0,0,0,0,0,0,0,0,0,0,0,0,0,0,0,0,0,0,0,0,0,0,0,0,0,0,0,0,0,0,0,0,0,0,0,0,0,0,0,0,0,0],"sum_hessian":[2.085E4,5.944E3,1.4906E4,5.7E2,5.374E3,5.602E3,9.304E3,1.52E2,4.18E2,2.522E3,2.852E3,1.001E3,4.601E3,4.281E3,5.023E3,1.2E1,4.06E2,3.98E2,2.124E3,1.705E3,1.147E3,4.19E2,5.82E2,4.03E3,5.71E2,3.743E3,5.38E2,2.433E3,2.59E3,9E0,3E0,2.69E2,1.37E2,3.47E2,5.1E1,1.28E3,8.44E2,4.23E2,1.282E3,4.79E2,6.68E2,3.97E2,2.2E1,5.1E2,7.2E1,3.82E3,2.1E2,3.74E2,1.97E2,3.559E3,1.84E2,3.17E2,2.21E2,1.109E3,1.324E3,6.6E2,1.93E3],"tree_param":{"num_deleted":"0","num_feature":"57","num_nodes":"57","size_leaf_vector":"1"}},{"base_weights":[-3.433305E-5,-1.3212045E-1,5.2642394E-2,-4.164938E-1,-1.0188615E-1,1.3134857E-1,5.2438574E-3,-3.79603E-1,-5.156888E-3,-1.4607249E-1,-6.277502E-2,3.0577105E-2,1.5326114E-1,-4.5857377E-2,4.879685E-2,-3.8974592E-1,-9.9135645E-2,-1.7026626E-1,-8.294653E-2,-9.8809585E-2,-9.170719E-3,-2.9934203E-2,7.411771E-2,1.5950839E-1,1.0896755E-1,-2.0257715E-2,-2.235926E-1,9.402208E-2,6.2931865E-3,-3.7063037E-3,-4.1227536E-3,-4.8462703E-4,-2.3903877E-3,-2.156861E-3,-1.2811642E-3,-6.282348E-4,-2.2424224E-3,-1.2883683E-3,-7.8488485E-4,1.4319483E-4,-6.947267E-4,-1.1883164E-4,-1.5745149E-3,8.496928E-4,-2.858606E-5,1.6610404E-3,1.12811E-3,1.4275656E-3,4.442284E-4,-6.816138E-5,-2.7880773E-3,-3.6673716E-3,-1.7540518E-4,1.3236469E-3,6.1830145E-4,7.499024E-4,-1.722574E-4],"categories":[],"categories_nodes":[],"categories_segments":[],"categories_sizes":[],"default_left":[0,0,0,0,0,0,0,0,0,0,0,0,0,0,0,0,0,0,0,0,0,0,0,0,0,0,0,0,0,0,0,0,0,0,0,0,0,0,0,0,0,0,0,0,0,0,0,0,0,0,0,0,0,0,0,0,0],"id":24,"left_children":[1,3,5,7,9,11,13,15,-1,17,19,21,23,25,27,29,31,33,35,37,39,41,43,45,47,49,51,53,55,-1,-1,-1,-1,-1,-1,-1,-1,-1,-1,-1,-1,-1,-1,-1,-1,-1,-1,-1,-1,-1,-1,-1,-1,-1,-1,-1,-1],"loss_changes":[1.4508537E2,5.1071648E1,5.5610725E1,1.893753E0,9.279781E0,1.2367653E1,2.0711557E1,1.1561623E0,0E0,3.839138E0,5.5099707E0,2.6421869E0,1.2560501E0,1.9478405E1,9.656732E0,2.161789E-2,1.01844385E-1,3.462391E0,1.9790664E0,1.0308666E0,1.6271427E0,9.648932E-1,4.8723102E-1,1.2228012E0,1.2411351E0,1.3009698E1,1.5891499E1,2.9961567E0,4.187522E0,0E0,0E0,0E0,0E0,0E0,0E0,0E0,0E0,0E0,0E0,0E0,0E0,0E0,0E0,0E0,0E0,0E0,0E0,0E0,0E0,0E0,0E0,0E0,0E0,0E0,0E0,0E0,0E0],"parents":[2147483647,0,0,1,1,2,2,3,3,4,4,5,5,6,6,7,7,9,9,10,10,11,11,12,12,13,13,14,14,15,15,16,16,17,17,18,18,19,19,20,20,21,21,22,22,23,23,24,24,25,25,26,26,27,27,28,28],"right_children":[2,4,6,8,10,12,14,16,-1,18,20,22,24,26,28,30,32,34,36,38,40,42,44,46,48,50,52,54,56,-1,-1,-1,-1,-1,-1,-1,-1,-1,-1,-1,-1,-1,-1,-1,-1,-1,-1,-1,-1,-1,-1,-1,-1,-1,-1,-1,-1],"split_conditions":[5.1650126E-3,1.381276E-3,2.1495327E-1,7.992941E-1,3.7993013E-3,1.4138671E-2,8.750709E-5,1.0524095E-9,-5.156888E-3,7.4378496E-1,6.2068965E-2,5.5032975E-5,1E0,1E0,4.1666666E-1,5.0430503E-2,1E0,4.5254126E-1,1E0,5.051088E-1,1.5440053E-1,1E0,1E0,7.1428575E-2,1.6297518E-6,1E0,1.5378061E-1,1.1067518E-1,8.306957E-2,-3.7063037E-3,-4.1227536E-3,-4.8462703E-4,-2.3903877E-3,-2.156861E-3,-1.2811642E-3,-6.282348E-4,-2.2424224E-3,-1.2883683E-3,-7.8488485E-4,1.4319483E-4,-6.947267E-4,-1.1883164E-4,-1.5745149E-3,8.496928E-4,-2.858606E-5,1.6610404E-3,1.12811E-3,1.4275656E-3,4.442284E-4,-6.816138E-5,-2.7880773E-3,-3.6673716E-3,-1.7540518E-4,1.3236469E-3,6.1830145E-4,7.499024E-4,-1.722574E-4],"split_indices":[3,3,24,0,3,3,5,14,0,16,28,15,32,32,23,9,29,7,29,0,18,32,29,26,13,40,0,0,0,0,0,0,0,0,0,0,0,0,0,0,0,0,0,0,0,0,0,0,0,0,0,0,0,0,0,0,0],"split_type":[0,0,0,0,0,0,0,0,0,0,0,0,0,0,0,0,0,0,0,0,0,0,0,0,0,0,0,0,0,0,0,0,0,0,0,0,0,0,0,0,0,0,0,0,0,0,0,0,0,0,0,0,0,0,0,0,0],"sum_hessian":[2.085E4,5.944E3,1.4906E4,5.7E2,5.374E3,5.602E3,9.304E3,4.19E2,1.51E2,2.522E3,2.852E3,1.001E3,4.601E3,4.281E3,5.023E3,4.04E2,1.5E1,1.822E3,7E2,1.705E3,1.147E3,4.19E2,5.82E2,4.03E3,5.71E2,3.743E3,5.38E2,2.433E3,2.59E3,2.28E2,1.76E2,1.2E1,3E0,8.75E2,9.47E2,6.14E2,8.6E1,6.86E2,1.019E3,8.26E2,3.21E2,3.68E2,5.1E1,5.1E2,7.2E1,3.529E3,5.01E2,3.74E2,1.97E2,3.559E3,1.84E2,3.17E2,2.21E2,1.109E3,1.324E3,6.6E2,1.93E3],"tree_param":{"num_deleted":"0","num_feature":"57","num_nodes":"57","size_leaf_vector":"1"}},{"base_weights":[-3.5196226E-5,-1.3592915E-1,5.0153118E-2,-4.1235667E-1,-1.0467152E-1,1.2933773E-1,3.8353289E-3,-5.101266E-3,-3.7567133E-1,-1.7353001E-1,-7.962917E-2,2.8085109E-2,1.5172952E-1,2.1128392E-2,-1.1794288E-1,-6.6671416E-2,-3.8461807E-1,-1.9395758E-1,-4.734435E-2,-1.448556E-1,-5.8947027E-2,-3.0970376E-2,7.107794E-2,1.6556996E-1,1.3169236E-1,9.453987E-2,-4.0640454E-3,-2.9767895E-1,-1.7623894E-2,8.22556E-5,-2.37246E-3,-3.6850688E-3,-4.133529E-3,-1.767588E-3,-3.1301149E-3,-1.4989001E-4,-3.0547336E-3,-1.632655E-3,-1.0138152E-3,-9.210263E-4,-3.296826E-4,-1.269174E-4,-1.5536669E-3,8.259699E-4,-9.1208276E-5,1.7308034E-3,1.0184748E-3,1.4029571E-3,-3.0095887E-4,-1.00837504E-4,1.1686368E-3,4.139842E-5,-1.6010838E-3,-3.7522265E-3,-1.8232653E-3,-1.7297583E-5,-3.5044306E-3],"categories":[],"categories_nodes":[],"categories_segments":[],"categories_sizes":[],"default_left":[0,0,0,0,0,0,0,0,0,0,0,0,0,0,0,0,0,0,0,0,0,0,0,0,0,0,0,0,0,0,0,0,0,0,0,0,0,0,0,0,0,0,0,0,0,0,0,0,0,0,0,0,0,0,0,0,0],"id":25,"left_children":[1,3,5,7,9,11,13,-1,15,17,19,21,23,25,27,29,31,33,35,37,39,41,43,45,47,49,51,53,55,-1,-1,-1,-1,-1,-1,-1,-1,-1,-1,-1,-1,-1,-1,-1,-1,-1,-1,-1,-1,-1,-1,-1,-1,-1,-1,-1,-1],"loss_changes":[1.4221664E2,4.8550835E1,5.585056E1,1.8563766E0,8.701183E0,1.2737564E1,2.023826E1,0E0,1.1327019E0,3.4629402E0,4.993637E0,2.5894043E0,1.2544327E0,1.5563204E1,2.1541727E1,1.6803324E-1,3.6102295E-2,2.3178177E0,1.5739217E0,6.973629E-1,2.4233637E0,9.7575986E-1,5.458033E-1,1.2831573E0,2.6279907E0,5.0227184E0,8.022209E0,3.759983E0,4.062017E0,0E0,0E0,0E0,0E0,0E0,0E0,0E0,0E0,0E0,0E0,0E0,0E0,0E0,0E0,0E0,0E0,0E0,0E0,0E0,0E0,0E0,0E0,0E0,0E0,0E0,0E0,0E0,0E0],"parents":[2147483647,0,0,1,1,2,2,3,3,4,4,5,5,6,6,8,8,9,9,10,10,11,11,12,12,13,13,14,14,15,15,16,16,17,17,18,18,19,19,20,20,21,21,22,22,23,23,24,24,25,25,26,26,27,27,28,28],"right_children":[2,4,6,8,10,12,14,-1,16,18,20,22,24,26,28,30,32,34,36,38,40,42,44,46,48,50,52,54,56,-1,-1,-1,-1,-1,-1,-1,-1,-1,-1,-1,-1,-1,-1,-1,-1,-1,-1,-1,-1,-1,-1,-1,-1,-1,-1,-1,-1],"split_conditions":[4.975058E-3,1.381276E-3,2.1495327E-1,6.9588914E-6,4.2655462E-1,1.4138671E-2,1E0,-5.101266E-3,1.927253E-2,3.76774E-1,4.104616E-2,5.2848263E-5,8.5427135E-2,1.5132409E-2,4.104713E-10,1E0,1.6656269E-1,1E0,1E0,4.141309E-3,1.0522804E-7,1E0,1E0,1.0714286E-1,1E0,8.279044E-3,1E0,3.9141863E-3,1.9710779E-4,8.22556E-5,-2.37246E-3,-3.6850688E-3,-4.133529E-3,-1.767588E-3,-3.1301149E-3,-1.4989001E-4,-3.0547336E-3,-1.632655E-3,-1.0138152E-3,-9.210263E-4,-3.296826E-4,-1.269174E-4,-1.5536669E-3,8.259699E-4,-9.1208276E-5,1.7308034E-3,1.0184748E-3,1.4029571E-3,-3.0095887E-4,-1.00837504E-4,1.1686368E-3,4.139842E-5,-1.6010838E-3,-3.7522265E-3,-1.8232653E-3,-1.7297583E-5,-3.5044306E-3],"split_indices":[3,3,24,12,0,3,32,0,2,11,19,15,24,8,13,29,4,32,29,3,13,32,29,26,46,2,47,21,12,0,0,0,0,0,0,0,0,0,0,0,0,0,0,0,0,0,0,0,0,0,0,0,0,0,0,0,0],"split_type":[0,0,0,0,0,0,0,0,0,0,0,0,0,0,0,0,0,0,0,0,0,0,0,0,0,0,0,0,0,0,0,0,0,0,0,0,0,0,0,0,0,0,0,0,0,0,0,0,0,0,0,0,0,0,0,0,0],"sum_hessian":[2.085E4,5.623E3,1.5227E4,5.7E2,5.053E3,5.619E3,9.608E3,1.52E2,4.18E2,1.346E3,3.707E3,1.018E3,4.601E3,8.414E3,1.194E3,1.2E1,4.06E2,1.158E3,1.88E2,8.91E2,2.816E3,4.29E2,5.89E2,2.717E3,1.884E3,2.149E3,6.265E3,4.27E2,7.67E2,9E0,3E0,2.69E2,1.37E2,1.014E3,1.44E2,1.68E2,2E1,6.24E2,2.67E2,1.236E3,1.58E3,3.75E2,5.4E1,5.15E2,7.4E1,2.429E3,2.88E2,1.789E3,9.5E1,3.78E2,1.771E3,5.953E3,3.12E2,2.54E2,1.73E2,7.33E2,3.4E1],"tree_param":{"num_deleted":"0","num_feature":"57","num_nodes":"57","size_leaf_vector":"1"}},{"base_weights":[-3.6478523E-5,-1.295182E-1,5.1601604E-2,-4.0825975E-1,-9.988268E-2,1.2873851E-1,5.148119E-3,-3.7209666E-1,-5.0549814E-3,-1.4334098E-1,-6.1416097E-2,2.9981384E-2,1.5021306E-1,-4.2612057E-2,5.038879E-2,-3.8203666E-1,-9.723445E-2,-5.1591255E-2,-1.5938489E-1,-9.686952E-2,-8.676587E-3,-2.93413E-2,7.266671E-2,1.5639766E-1,1.063664E-1,-1.7265974E-2,-2.1889068E-1,9.393697E-2,7.1101612E-3,-3.632612E-3,-4.041696E-3,-4.7221888E-4,-2.3546666E-3,-1.8161863E-4,-2.7499285E-3,-1.2631706E-3,-2.0805905E-3,-2.3620508E-3,-9.251989E-4,1.4605114E-4,-6.844456E-4,-1.7791122E-4,-2.2793384E-3,8.3296956E-4,-2.7404418E-5,1.6044661E-3,8.233376E-4,1.3973851E-3,4.262444E-4,-3.8908187E-5,-2.7403545E-3,-3.5978588E-3,-1.5644213E-4,6.393782E-4,1.3225747E-3,8.234167E-4,-1.6393285E-4],"categories":[],"categories_nodes":[],"categories_segments":[],"categories_sizes":[],"default_left":[0,0,0,0,0,0,0,0,0,0,0,0,0,0,0,0,0,0,0,0,0,0,0,0,0,0,0,0,0,0,0,0,0,0,0,0,0,0,0,0,0,0,0,0,0,0,0,0,0,0,0,0,0,0,0,0,0],"id":26,"left_children":[1,3,5,7,9,11,13,15,-1,17,19,21,23,25,27,29,31,33,35,37,